{"learner":{"attributes":{"scikit_learn":"{\"_estimator_type\": \"regressor\"}"},"feature_names":[],"feature_types":[],"gradient_booster":{"model":{"cats":{"enc":[],"feature_segments":[],"sorted_idx":[]},"gbtree_model_param":{"num_parallel_tree":"1","num_trees":"500"},"iteration_indptr":[0,1,2,3,4,5,6,7,8,9,10,11,12,13,14,15,16,17,18,19,20,21,22,23,24,25,26,27,28,29,30,31,32,33,34,35,36,37,38,39,40,41,42,43,44,45,46,47,48,49,50,51,52,53,54,55,56,57,58,59,60,61,62,63,64,65,66,67,68,69,70,71,72,73,74,75,76,77,78,79,80,81,82,83,84,85,86,87,88,89,90,91,92,93,94,95,96,97,98,99,100,101,102,103,104,105,106,107,108,109,110,111,112,113,114,115,116,117,118,119,120,121,122,123,124,125,126,127,128,129,130,131,132,133,134,135,136,137,138,139,140,141,142,143,144,145,146,147,148,149,150,151,152,153,154,155,156,157,158,159,160,161,162,163,164,165,166,167,168,169,170,171,172,173,174,175,176,177,178,179,180,181,182,183,184,185,186,187,188,189,190,191,192,193,194,195,196,197,198,199,200,201,202,203,204,205,206,207,208,209,210,211,212,213,214,215,216,217,218,219,220,221,222,223,224,225,226,227,228,229,230,231,232,233,234,235,236,237,238,239,240,241,242,243,244,245,246,247,248,249,250,251,252,253,254,255,256,257,258,259,260,261,262,263,264,265,266,267,268,269,270,271,272,273,274,275,276,277,278,279,280,281,282,283,284,285,286,287,288,289,290,291,292,293,294,295,296,297,298,299,300,301,302,303,304,305,306,307,308,309,310,311,312,313,314,315,316,317,318,319,320,321,322,323,324,325,326,327,328,329,330,331,332,333,334,335,336,337,338,339,340,341,342,343,344,345,346,347,348,349,350,351,352,353,354,355,356,357,358,359,360,361,362,363,364,365,366,367,368,369,370,371,372,373,374,375,376,377,378,379,380,381,382,383,384,385,386,387,388,389,390,391,392,393,394,395,396,397,398,399,400,401,402,403,404,405,406,407,408,409,410,411,412,413,414,415,416,417,418,419,420,421,422,423,424,425,426,427,428,429,430,431,432,433,434,435,436,437,438,439,440,441,442,443,444,445,446,447,448,449,450,451,452,453,454,455,456,457,458,459,460,461,462,463,464,465,466,467,468,469,470,471,472,473,474,475,476,477,478,479,480,481,482,483,484,485,486,487,488,489,490,491,492,493,494,495,496,497,498,499,500],"tree_info":[0,0,0,0,0,0,0,0,0,0,0,0,0,0,0,0,0,0,0,0,0,0,0,0,0,0,0,0,0,0,0,0,0,0,0,0,0,0,0,0,0,0,0,0,0,0,0,0,0,0,0,0,0,0,0,0,0,0,0,0,0,0,0,0,0,0,0,0,0,0,0,0,0,0,0,0,0,0,0,0,0,0,0,0,0,0,0,0,0,0,0,0,0,0,0,0,0,0,0,0,0,0,0,0,0,0,0,0,0,0,0,0,0,0,0,0,0,0,0,0,0,0,0,0,0,0,0,0,0,0,0,0,0,0,0,0,0,0,0,0,0,0,0,0,0,0,0,0,0,0,0,0,0,0,0,0,0,0,0,0,0,0,0,0,0,0,0,0,0,0,0,0,0,0,0,0,0,0,0,0,0,0,0,0,0,0,0,0,0,0,0,0,0,0,0,0,0,0,0,0,0,0,0,0,0,0,0,0,0,0,0,0,0,0,0,0,0,0,0,0,0,0,0,0,0,0,0,0,0,0,0,0,0,0,0,0,0,0,0,0,0,0,0,0,0,0,0,0,0,0,0,0,0,0,0,0,0,0,0,0,0,0,0,0,0,0,0,0,0,0,0,0,0,0,0,0,0,0,0,0,0,0,0,0,0,0,0,0,0,0,0,0,0,0,0,0,0,0,0,0,0,0,0,0,0,0,0,0,0,0,0,0,0,0,0,0,0,0,0,0,0,0,0,0,0,0,0,0,0,0,0,0,0,0,0,0,0,0,0,0,0,0,0,0,0,0,0,0,0,0,0,0,0,0,0,0,0,0,0,0,0,0,0,0,0,0,0,0,0,0,0,0,0,0,0,0,0,0,0,0,0,0,0,0,0,0,0,0,0,0,0,0,0,0,0,0,0,0,0,0,0,0,0,0,0,0,0,0,0,0,0,0,0,0,0,0,0,0,0,0,0,0,0,0,0,0,0,0,0,0,0,0,0,0,0,0,0,0,0,0,0,0,0,0,0,0,0,0,0,0,0,0,0,0,0,0,0,0,0,0,0,0,0,0,0,0,0,0,0,0,0,0,0,0,0,0,0,0,0,0,0,0,0,0,0,0,0,0,0,0,0,0,0,0,0,0,0,0,0,0],"trees":[{"base_weights":[-2.8154728E-4,-4.5514956E-2,1.335947E-1,-1.0374643E-1,-2.457959E-2,1.05957665E-1,3.0342162E-1,-7.00041E-3,-7.759685E-2,-4.0162425E-2,8.747601E-3,7.0257485E-2,1.4832851E-1,2.5414312E-1,3.9360747E-1,1.3212678E-1,-3.983665E-3,-4.9708605E-2,-2.7814569E-2,-9.435322E-4,2.5852494E-2,5.8238674E-2,9.325399E-2,1.2500258E-1,1.7040673E-1,2.2516564E-1,1.503961E-2,1.13725826E-1,4.100871E-1,1.3648067E-2,-2.4937638E-3,-3.2214408E-3,-2.298895E-3,-1.7578554E-3,-9.5638155E-4,-7.7154615E-4,4.525542E-3,6.4592826E-4,1.9731382E-3,1.4847106E-3,6.537141E-2,-4.0946534E-4,9.6416414E-2,3.7357744E-3,6.501293E-3,-4.934541E-4,1.726113E-1,1.641626E-4,2.309268E-1,8.98056E-3,-1.5263788E-3,4.803158E-1,1.774257E-2,-1.4502463E-4,8.530713E-4,5.4918155E-3,3.1840687E-3,4.2091957E-3,5.553052E-3,7.0620743E-3,9.138377E-3,1.2661352E-2,9.409941E-3,2.5382916E-2,1.166674E-2],"categories":[],"categories_nodes":[],"categories_segments":[],"categories_sizes":[],"default_left":[0,0,0,0,0,0,0,0,0,0,0,0,0,0,0,0,0,0,0,0,0,0,0,0,0,0,0,0,0,0,0,0,0,0,0,0,0,0,0,0,0,0,0,0,0,0,0,0,0,0,0,0,0,0,0,0,0,0,0,0,0,0,0,0,0],"id":0,"left_children":[1,3,5,7,9,11,13,-1,15,17,19,21,23,25,27,29,-1,31,33,35,37,39,41,43,45,47,-1,49,51,-1,-1,-1,-1,-1,-1,-1,53,-1,-1,-1,55,-1,57,-1,-1,-1,59,-1,61,-1,-1,63,-1,-1,-1,-1,-1,-1,-1,-1,-1,-1,-1,-1,-1],"loss_changes":[4.9947273E1,7.5131845E0,9.744442E0,1.4579887E0,2.3560417E0,2.7017555E0,1.1932354E0,0E0,2.1491861E-1,3.6296844E-1,2.3972173E-1,2.6405048E-1,4.0047836E-1,1.6987896E-1,4.1920948E-1,1.3778412E-1,0E0,1.017189E-1,8.2432866E-2,7.2275E-2,8.9269966E-2,1.3075376E-1,1.0749674E-1,5.9505463E-2,1.6769028E-1,1.5011978E-1,0E0,6.9359794E-2,2.307806E-1,0E0,0E0,0E0,0E0,0E0,0E0,0E0,6.092648E-2,0E0,0E0,0E0,4.884696E-2,0E0,4.7727346E-2,0E0,0E0,0E0,8.177853E-2,0E0,5.241537E-2,0E0,0E0,9.777546E-2,0E0,0E0,0E0,0E0,0E0,0E0,0E0,0E0,0E0,0E0,0E0,0E0,0E0],"parents":[2147483647,0,0,1,1,2,2,3,3,4,4,5,5,6,6,8,8,9,9,10,10,11,11,12,12,13,13,14,14,15,15,17,17,18,18,19,19,20,20,21,21,22,22,23,23,24,24,25,25,27,27,28,28,36,36,40,40,42,42,46,46,48,48,51,51],"right_children":[2,4,6,8,10,12,14,-1,16,18,20,22,24,26,28,30,-1,32,34,36,38,40,42,44,46,48,-1,50,52,-1,-1,-1,-1,-1,-1,-1,54,-1,-1,-1,56,-1,58,-1,-1,-1,60,-1,62,-1,-1,64,-1,-1,-1,-1,-1,-1,-1,-1,-1,-1,-1,-1,-1],"split_conditions":[1.8787475E-1,6.662225E-2,3.7175217E-1,1.1325783E-2,1.332445E-1,2.54497E-1,4.8434377E-1,-7.00041E-3,7.038835E-2,1.02598265E-1,1.6255829E-1,2.2851433E-1,2.9380414E-1,4.2717972E-1,2.0652898E-1,8.4269664E-4,-3.983665E-3,6.962025E-2,9.88867E-1,8.6608924E-2,1.6255829E-1,1.4923385E-1,8.194537E-2,1.7055297E-1,8.8607594E-2,3.000487E-1,1.503961E-2,1.262136E-1,5.6179776E-4,1.3648067E-2,-2.4937638E-3,-3.2214408E-3,-2.298895E-3,-1.7578554E-3,-9.5638155E-4,-7.7154615E-4,1.6055962E-1,6.4592826E-4,1.9731382E-3,1.4847106E-3,6.31068E-2,-4.0946534E-4,2.2451699E-1,3.7357744E-3,6.501293E-3,-4.934541E-4,1.8787475E-1,1.641626E-4,4.2336494E-2,8.98056E-3,-1.5263788E-3,9.9211824E-1,1.774257E-2,-1.4502463E-4,8.530713E-4,5.4918155E-3,3.1840687E-3,4.2091957E-3,5.553052E-3,7.0620743E-3,9.138377E-3,1.2661352E-2,9.409941E-3,2.5382916E-2,1.166674E-2],"split_indices":[167,167,167,139,167,167,167,0,45,167,20,167,167,21,118,8,0,13,40,41,167,146,90,153,69,161,0,3,134,0,0,0,0,0,0,0,167,0,0,0,73,0,90,0,0,0,34,0,144,0,0,159,0,0,0,0,0,0,0,0,0,0,0,0,0],"split_type":[0,0,0,0,0,0,0,0,0,0,0,0,0,0,0,0,0,0,0,0,0,0,0,0,0,0,0,0,0,0,0,0,0,0,0,0,0,0,0,0,0,0,0,0,0,0,0,0,0,0,0,0,0,0,0,0,0,0,0,0,0,0,0,0,0],"sum_hessian":[8.246E3,6.164E3,2.082E3,1.629E3,4.535E3,1.792E3,2.9E2,7.01E2,9.28E2,3.09E3,1.445E3,9.74E2,8.18E2,1.9E2,1E2,4E0,9.24E2,1.741E3,1.349E3,9.23E2,5.22E2,6.42E2,3.32E2,4.01E2,4.17E2,1.17E2,7.3E1,6E0,9.4E1,2E0,2E0,4.1E2,1.331E3,7.6E2,5.89E2,2.55E2,6.68E2,2.62E2,2.6E2,1.28E2,5.14E2,1E1,3.22E2,2.6E1,3.75E2,5E0,4.12E2,3E0,1.14E2,4E0,2E0,4E1,5.4E1,4.18E2,2.5E2,2.6E1,4.88E2,1.64E2,1.58E2,8.2E1,3.3E2,7.7E1,3.7E1,3.6E1,4E0],"tree_param":{"num_deleted":"0","num_feature":"168","num_nodes":"65","size_leaf_vector":"1"}},{"base_weights":[-3.9301696E-4,-4.0657498E-2,1.3233393E-1,-9.066249E-2,-1.794256E-2,1.0566401E-1,2.8340557E-1,-6.622355E-3,-6.885869E-2,-3.374931E-2,1.4951663E-2,7.544193E-2,1.4572449E-1,2.613962E-1,4.4622368E-1,1.3595757E-2,-6.9591366E-2,-4.184368E-2,-2.0519122E-2,9.934658E-4,2.8501932E-2,6.0322262E-2,9.426919E-2,5.8599063E-3,1.5618813E-1,3.1522855E-1,2.2623394E-1,1.1152017E-2,4.9861738E-1,-3.9459313E-3,-3.1338865E-3,-2.534735E-3,-1.8321896E-3,-1.3049776E-3,-4.5064438E-4,-5.2078656E-4,5.510522E-4,8.084819E-4,1.9262916E-3,1.6051314E-3,3.4378937E-3,-1.0334697E-3,4.8481687E-3,4.436271E-3,1.6065715E-1,1.8747278E-2,1.4424097E-2,6.9525406E-2,2.3855352E-1,1.1372937E-2,2.6572734E-2,7.655575E-3,9.093238E-3,5.2891304E-3,-4.132989E-3,1.0912362E-2,1.4271284E-2],"categories":[],"categories_nodes":[],"categories_segments":[],"categories_sizes":[],"default_left":[0,0,0,0,0,0,0,0,0,0,0,0,0,0,0,0,0,0,0,0,0,0,0,0,0,0,0,0,0,0,0,0,0,0,0,0,0,0,0,0,0,0,0,0,0,0,0,0,0,0,0,0,0,0,0,0,0],"id":1,"left_children":[1,3,5,7,9,11,13,-1,15,17,19,21,23,25,27,-1,29,31,33,35,37,39,41,-1,43,45,47,-1,49,-1,-1,-1,-1,-1,-1,-1,-1,-1,-1,-1,-1,-1,-1,-1,51,-1,-1,53,55,-1,-1,-1,-1,-1,-1,-1,-1],"loss_changes":[4.431399E1,7.224717E0,7.7461624E0,1.727335E0,2.2758093E0,1.9769936E0,9.189987E-1,0E0,3.3720207E-1,3.1569934E-1,2.6873586E-1,2.613268E-1,2.0350647E-1,4.151497E-1,2.8107262E-1,0E0,7.7762604E-2,8.342147E-2,6.827742E-2,7.824492E-2,8.553845E-2,1.10905886E-1,7.086921E-2,0E0,1.4536285E-1,6.0134888E-2,2.9037666E-1,0E0,6.741667E-2,0E0,0E0,0E0,0E0,0E0,0E0,0E0,0E0,0E0,0E0,0E0,0E0,0E0,0E0,0E0,6.031418E-2,0E0,0E0,7.707153E-2,8.609581E-2,0E0,0E0,0E0,0E0,0E0,0E0,0E0,0E0],"parents":[2147483647,0,0,1,1,2,2,3,3,4,4,5,5,6,6,8,8,9,9,10,10,11,11,12,12,13,13,14,14,16,16,17,17,18,18,19,19,20,20,21,21,22,22,24,24,25,25,26,26,28,28,44,44,47,47,48,48],"right_children":[2,4,6,8,10,12,14,-1,16,18,20,22,24,26,28,-1,30,32,34,36,38,40,42,-1,44,46,48,-1,50,-1,-1,-1,-1,-1,-1,-1,-1,-1,-1,-1,-1,-1,-1,-1,52,-1,-1,54,56,-1,-1,-1,-1,-1,-1,-1,-1],"split_conditions":[1.9720186E-1,7.528315E-2,3.7175217E-1,1.1325783E-2,1.392405E-1,2.6249167E-1,6.182545E-1,-6.622355E-3,6.553398E-2,1.11925386E-1,1.538974E-1,2.3117921E-1,2.8247836E-1,7.4029125E-2,9.897537E-1,1.3595757E-2,5.5962693E-2,9.260493E-2,1.3790806E-1,9.8876846E-1,1.6788808E-1,1.2991339E-1,1.8119824E-1,5.8599063E-3,1.2325116E-1,5.6179776E-4,2.3770092E-1,1.1152017E-2,3.0654019E-2,-3.9459313E-3,-3.1338865E-3,-2.534735E-3,-1.8321896E-3,-1.3049776E-3,-4.5064438E-4,-5.2078656E-4,5.510522E-4,8.084819E-4,1.9262916E-3,1.6051314E-3,3.4378937E-3,-1.0334697E-3,4.8481687E-3,4.436271E-3,3.3044636E-1,1.8747278E-2,1.4424097E-2,8.11216E-1,4.5103264E-1,1.1372937E-2,2.6572734E-2,7.655575E-3,9.093238E-3,5.2891304E-3,-4.132989E-3,1.0912362E-2,1.4271284E-2],"split_indices":[167,167,167,160,167,167,167,0,45,167,160,167,167,3,33,0,167,111,6,47,167,97,154,0,27,141,112,0,4,0,0,0,0,0,0,0,0,0,0,0,0,0,0,0,167,0,0,23,167,0,0,0,0,0,0,0,0],"split_type":[0,0,0,0,0,0,0,0,0,0,0,0,0,0,0,0,0,0,0,0,0,0,0,0,0,0,0,0,0,0,0,0,0,0,0,0,0,0,0,0,0,0,0,0,0,0,0,0,0,0,0,0,0,0,0,0,0],"sum_hessian":[8.29E3,6.361E3,1.929E3,1.986E3,4.375E3,1.641E3,2.88E2,6.98E2,1.288E3,2.955E3,1.42E3,9.37E2,7.04E2,2.56E2,3.2E1,2E0,1.286E3,1.832E3,1.123E3,7E2,7.2E2,5.22E2,4.15E2,1.85E2,5.19E2,9.8E1,1.58E2,7E0,2.5E1,6.15E2,6.71E2,7.46E2,1.086E3,7.73E2,3.5E2,3.27E2,3.73E2,3.12E2,4.08E2,1.1E2,4.12E2,5E0,4.1E2,3.3E1,4.86E2,3.1E1,6.7E1,1.2E1,1.46E2,3E0,2.2E1,3.29E2,1.57E2,1E1,2E0,9.9E1,4.7E1],"tree_param":{"num_deleted":"0","num_feature":"168","num_nodes":"57","size_leaf_vector":"1"}},{"base_weights":[1.4378614E-4,-3.836641E-2,1.26034E-1,-8.642974E-2,-1.6623074E-2,1.00804694E-1,2.709706E-1,-6.2942975E-3,-6.516582E-2,-3.1489313E-2,1.4223512E-2,7.730762E-2,1.4731826E-1,2.484999E-1,4.357158E-1,1.3740262E-1,-6.591914E-2,-3.9127294E-2,-1.9671122E-2,4.368042E-3,3.0992044E-2,5.8139164E-2,9.5854364E-2,1.0596456E-1,1.545143E-1,-1.4007707E-3,2.5415623E-1,2.7051559E-3,4.586582E-1,-2.4646772E-3,1.40643725E-2,-3.7711563E-3,-2.941696E-3,-2.3483445E-3,-3.1078035E-2,-1.3833218E-3,-5.82817E-4,-3.053151E-3,8.9483906E-4,3.052308E-4,1.824372E-3,1.4759032E-3,6.4715154E-2,2.4416612E-3,5.073357E-3,6.4183124E-3,3.1167113E-3,7.2136708E-3,9.053299E-3,2.2476916E-1,3.0103377E-1,1.1927164E-2,2.4465375E-2,2.601944E-3,-1.6373196E-3,-6.562385E-4,2.9613046E-4,4.52641E-3,3.0180526E-3,1.3286E-2,9.783572E-3,1.6903462E-2,1.2022191E-2],"categories":[],"categories_nodes":[],"categories_segments":[],"categories_sizes":[],"default_left":[0,0,0,0,0,0,0,0,0,0,0,0,0,0,0,0,0,0,0,0,0,0,0,0,0,0,0,0,0,0,0,0,0,0,0,0,0,0,0,0,0,0,0,0,0,0,0,0,0,0,0,0,0,0,0,0,0,0,0,0,0,0,0],"id":2,"left_children":[1,3,5,7,9,11,13,-1,15,17,19,21,23,25,27,29,31,33,35,37,39,41,43,45,47,-1,49,-1,51,-1,-1,-1,-1,-1,53,-1,-1,55,-1,-1,-1,-1,57,-1,-1,-1,-1,-1,-1,59,61,-1,-1,-1,-1,-1,-1,-1,-1,-1,-1,-1,-1],"loss_changes":[4.0006153E1,6.6022797E0,7.040989E0,1.5751572E0,1.9961563E0,1.7897644E0,9.504814E-1,0E0,2.0163679E-1,2.643447E-1,2.3387524E-1,3.844242E-1,1.47892E-1,4.037819E-1,2.649517E-1,1.4399524E-1,7.986164E-2,1.0238552E-1,7.172394E-2,8.818221E-2,6.552392E-2,1.0148096E-1,1.0923338E-1,7.056373E-2,1.11691475E-1,0E0,2.753563E-1,0E0,5.469942E-2,0E0,0E0,0E0,0E0,0E0,8.869743E-2,0E0,0E0,5.0660416E-2,0E0,0E0,0E0,0E0,5.0455093E-2,0E0,0E0,0E0,0E0,0E0,0E0,1.356287E-1,1.1435318E-1,0E0,0E0,0E0,0E0,0E0,0E0,0E0,0E0,0E0,0E0,0E0,0E0],"parents":[2147483647,0,0,1,1,2,2,3,3,4,4,5,5,6,6,8,8,9,9,10,10,11,11,12,12,13,13,14,14,15,15,16,16,17,17,18,18,19,19,20,20,21,21,22,22,23,23,24,24,26,26,28,28,34,34,37,37,42,42,49,49,50,50],"right_children":[2,4,6,8,10,12,14,-1,16,18,20,22,24,26,28,30,32,34,36,38,40,42,44,46,48,-1,50,-1,52,-1,-1,-1,-1,-1,54,-1,-1,56,-1,-1,-1,-1,58,-1,-1,-1,-1,-1,-1,60,62,-1,-1,-1,-1,-1,-1,-1,-1,-1,-1,-1,-1],"split_conditions":[1.9720186E-1,7.528315E-2,3.7175217E-1,1.1325783E-2,1.392405E-1,2.7981347E-1,6.182545E-1,-6.2942975E-3,7.038835E-2,1.1125916E-1,1.7055297E-1,2.3317789E-1,1.6522318E-1,9.7268485E-2,9.896552E-1,9.856158E-1,5.5962693E-2,9.8817736E-1,9.88867E-1,1.5789473E-1,9.875862E-1,1.2191872E-1,1.20586276E-1,9.915271E-1,3.3044636E-1,-1.4007707E-3,4.5103264E-1,2.7051559E-3,9.884729E-1,-2.4646772E-3,1.40643725E-2,-3.7711563E-3,-2.941696E-3,-2.3483445E-3,1.3881177E-2,-1.3833218E-3,-5.82817E-4,9.886785E-1,8.9483906E-4,3.052308E-4,1.824372E-3,1.4759032E-3,9.7087376E-2,2.4416612E-3,5.073357E-3,6.4183124E-3,3.1167113E-3,7.2136708E-3,9.053299E-3,8.495145E-2,9.907389E-1,1.1927164E-2,2.4465375E-2,2.601944E-3,-1.6373196E-3,-6.562385E-4,2.9613046E-4,4.52641E-3,3.0180526E-3,1.3286E-2,9.783572E-3,1.6903462E-2,1.2022191E-2],"split_indices":[167,167,167,160,167,167,167,0,59,167,167,167,48,48,26,5,167,117,40,34,61,97,118,145,167,0,167,0,131,0,0,0,0,0,23,0,0,110,0,0,0,0,31,0,0,0,0,0,0,17,75,0,0,0,0,0,0,0,0,0,0,0,0],"split_type":[0,0,0,0,0,0,0,0,0,0,0,0,0,0,0,0,0,0,0,0,0,0,0,0,0,0,0,0,0,0,0,0,0,0,0,0,0,0,0,0,0,0,0,0,0,0,0,0,0,0,0,0,0,0,0,0,0,0,0,0,0,0,0],"sum_hessian":[8.25E3,6.318E3,1.932E3,1.967E3,4.351E3,1.647E3,2.85E2,7.06E2,1.261E3,2.936E3,1.415E3,1.096E3,5.51E2,2.53E2,3.2E1,4E0,1.257E3,1.782E3,1.154E3,8.92E2,5.23E2,5.41E2,5.55E2,8.4E1,4.67E2,5E0,2.48E2,2E0,3E1,2E0,2E0,5.98E2,6.59E2,9.36E2,8.46E2,5.95E2,5.59E2,5.73E2,3.19E2,8.8E1,4.35E2,1.01E2,4.4E2,4.7E1,5.08E2,5.6E1,2.8E1,3.16E2,1.51E2,1.56E2,9.2E1,4E0,2.6E1,1.2E1,8.34E2,2.71E2,3.02E2,7.3E1,3.67E2,6.8E1,8.8E1,5.8E1,3.4E1],"tree_param":{"num_deleted":"0","num_feature":"168","num_nodes":"63","size_leaf_vector":"1"}},{"base_weights":[2.946905E-4,-3.6558416E-2,1.2076122E-1,-8.193674E-2,-1.5953807E-2,9.6017815E-2,2.5661078E-1,-5.9747268E-3,-6.2028788E-2,-3.1168163E-2,1.1795133E-2,6.444352E-2,1.2709361E-1,2.2521648E-1,3.5948536E-1,1.2948851E-2,-6.272814E-2,-3.9848007E-2,-2.2490839E-2,1.3570442E-3,2.7731927E-2,5.3089224E-2,8.050594E-2,1.0242861E-1,1.4118744E-1,-8.3128584E-4,2.2954653E-1,9.4182886E-2,3.8364074E-1,-3.573921E-3,-2.8145127E-3,-2.318783E-3,-2.9870236E-2,-1.532436E-3,-8.122756E-4,-9.43394E-3,5.010638E-4,3.5067037E-4,1.7499314E-3,3.1617783E-2,3.2838746E-3,5.3463536E-3,3.6928472E-3,1.6147011E-3,5.329618E-3,3.1227162E-3,1.4422742E-1,1.0039114E-2,2.6166847E-1,-1.926112E-3,7.834535E-3,1.33225145E-2,4.434085E-1,8.89875E-3,-1.5896006E-3,3.0525208E-3,-5.820505E-4,-5.114609E-4,2.069712E-3,6.828502E-3,8.313265E-3,1.4044178E-2,9.689854E-3,1.0979225E-2,2.3430496E-2],"categories":[],"categories_nodes":[],"categories_segments":[],"categories_sizes":[],"default_left":[0,0,0,0,0,0,0,0,0,0,0,0,0,0,0,0,0,0,0,0,0,0,0,0,0,0,0,0,0,0,0,0,0,0,0,0,0,0,0,0,0,0,0,0,0,0,0,0,0,0,0,0,0,0,0,0,0,0,0,0,0,0,0,0,0],"id":3,"left_children":[1,3,5,7,9,11,13,-1,15,17,19,21,23,25,27,-1,29,31,33,35,37,39,41,43,45,-1,47,49,51,-1,-1,-1,53,-1,-1,55,-1,-1,-1,57,-1,-1,-1,-1,-1,-1,59,-1,61,-1,-1,-1,63,-1,-1,-1,-1,-1,-1,-1,-1,-1,-1,-1,-1],"loss_changes":[3.6728508E1,5.921934E0,6.4897137E0,1.4109964E0,1.8402379E0,1.6019535E0,8.8147926E-1,0E0,2.9951525E-1,2.1112347E-1,2.5680625E-1,1.4454603E-1,2.7267647E-1,2.4545479E-1,3.9964485E-1,0E0,6.7528725E-2,8.1823826E-2,7.016593E-2,8.6116664E-2,8.64172E-2,1.1921811E-1,5.626154E-2,5.64878E-2,1.1756611E-1,0E0,1.767435E-1,6.1861396E-2,3.3035946E-1,0E0,0E0,0E0,1.69312E-1,0E0,0E0,5.9905197E-2,0E0,0E0,0E0,6.673147E-2,0E0,0E0,0E0,0E0,0E0,0E0,7.211685E-2,0E0,6.657982E-2,0E0,0E0,0E0,7.346821E-2,0E0,0E0,0E0,0E0,0E0,0E0,0E0,0E0,0E0,0E0,0E0,0E0],"parents":[2147483647,0,0,1,1,2,2,3,3,4,4,5,5,6,6,8,8,9,9,10,10,11,11,12,12,13,13,14,14,16,16,17,17,18,18,19,19,20,20,21,21,22,22,23,23,24,24,26,26,27,27,28,28,32,32,35,35,39,39,46,46,48,48,52,52],"right_children":[2,4,6,8,10,12,14,-1,16,18,20,22,24,26,28,-1,30,32,34,36,38,40,42,44,46,-1,48,50,52,-1,-1,-1,54,-1,-1,56,-1,-1,-1,58,-1,-1,-1,-1,-1,-1,60,-1,62,-1,-1,-1,64,-1,-1,-1,-1,-1,-1,-1,-1,-1,-1,-1,-1],"split_conditions":[1.9720186E-1,7.528315E-2,3.7175217E-1,1.1325783E-2,1.359094E-1,2.54497E-1,5.216522E-1,-5.9747268E-3,6.553398E-2,1.0326449E-1,1.6655563E-1,2.1518987E-1,2.8247836E-1,2.2308816E-1,3.0979055E-1,1.2948851E-2,5.5962693E-2,1.1392405E-1,9.8817736E-1,1.2191872E-1,1.3057962E-1,9.9004924E-1,9.466019E-2,1.8187875E-1,1.8168534E-1,-8.3128584E-4,3.9600584E-1,3.8242634E-2,3.2151774E-2,-3.573921E-3,-2.8145127E-3,-2.318783E-3,3.0646237E-2,-1.532436E-3,-8.122756E-4,2.1168247E-2,5.010638E-4,3.5067037E-4,1.7499314E-3,1.01265825E-1,3.2838746E-3,5.3463536E-3,3.6928472E-3,1.6147011E-3,5.329618E-3,3.1227162E-3,3.3044636E-1,1.0039114E-2,9.2309827E-1,-1.926112E-3,7.834535E-3,1.33225145E-2,1.5991116E-1,8.89875E-3,-1.5896006E-3,3.0525208E-3,-5.820505E-4,-5.114609E-4,2.069712E-3,6.828502E-3,8.313265E-3,1.4044178E-2,9.689854E-3,1.0979225E-2,2.3430496E-2],"split_indices":[167,167,167,160,167,167,167,0,45,167,167,69,167,161,119,0,167,97,40,20,146,54,38,160,21,0,21,4,4,0,0,0,62,0,0,81,0,0,0,62,0,0,0,0,0,0,167,0,114,0,0,0,156,0,0,0,0,0,0,0,0,0,0,0,0],"split_type":[0,0,0,0,0,0,0,0,0,0,0,0,0,0,0,0,0,0,0,0,0,0,0,0,0,0,0,0,0,0,0,0,0,0,0,0,0,0,0,0,0,0,0,0,0,0,0,0,0,0,0,0,0,0,0,0,0,0,0,0,0,0,0,0,0],"sum_hessian":[8.271E3,6.334E3,1.937E3,1.977E3,4.357E3,1.64E3,2.97E2,7.02E2,1.275E3,2.814E3,1.543E3,8.15E2,8.25E2,2.3E2,6.7E1,2E0,1.273E3,1.405E3,1.409E3,9.33E2,6.1E2,4.8E2,3.35E2,3.03E2,5.22E2,4E0,2.26E2,6E0,6.1E1,6.04E2,6.69E2,8.79E2,5.26E2,6.38E2,7.71E2,4.12E2,5.21E2,1.51E2,4.59E2,1.71E2,3.09E2,7.5E1,2.6E2,1.2E1,2.91E2,2E1,5.02E2,1.18E2,1.08E2,2E0,4E0,2.2E1,3.9E1,3E0,5.23E2,1.1E1,4.01E2,3.1E1,1.4E2,3.46E2,1.56E2,8.6E1,2.2E1,4E0,3.5E1],"tree_param":{"num_deleted":"0","num_feature":"168","num_nodes":"65","size_leaf_vector":"1"}},{"base_weights":[6.7958754E-5,-3.327641E-2,1.1933177E-1,-7.045892E-2,-9.714994E-3,9.527491E-2,2.4365625E-1,-5.658976E-3,-5.4258775E-2,-2.4554418E-2,1.8032521E-2,7.336666E-2,1.3310623E-1,2.2409798E-1,3.8547778E-1,1.0589533E-1,-5.476388E-2,-3.056777E-2,-1.23933405E-2,9.461886E-3,3.6100425E-2,5.8717143E-2,9.03638E-2,7.729284E-3,1.220961E-1,1.8369834E-1,2.627738E-1,2.4213872E-3,2.0518841E-2,-2.027532E-3,1.34311505E-2,-3.23642E-3,-2.3175797E-3,-1.8257281E-3,-1.095494E-3,-1.0232378E-3,-1.6777248E-4,3.4061597E-6,1.0344373E-3,7.383837E-4,2.089142E-3,4.5985905E-3,5.168651E-2,2.2015006E-3,4.8139915E-3,9.518414E-2,6.744172E-3,-1.1154854E-3,1.9383015E-1,2.844535E-1,1.0575029E-2,1.1432709E-3,2.9590277E-3,3.4158272E-3,6.065455E-3,6.256335E-3,1.0287755E-2,1.3385743E-2,1.8628974E-2],"categories":[],"categories_nodes":[],"categories_segments":[],"categories_sizes":[],"default_left":[0,0,0,0,0,0,0,0,0,0,0,0,0,0,0,0,0,0,0,0,0,0,0,0,0,0,0,0,0,0,0,0,0,0,0,0,0,0,0,0,0,0,0,0,0,0,0,0,0,0,0,0,0,0,0,0,0,0,0],"id":4,"left_children":[1,3,5,7,9,11,13,-1,15,17,19,21,23,25,27,29,31,33,35,37,39,41,43,-1,45,47,49,-1,-1,-1,-1,-1,-1,-1,-1,-1,-1,-1,-1,-1,-1,-1,51,-1,-1,53,-1,-1,55,57,-1,-1,-1,-1,-1,-1,-1,-1,-1],"loss_changes":[3.2852142E1,5.65524E0,5.3752823E0,1.6677437E0,1.6281186E0,1.2450638E0,7.235584E-1,0E0,1.514101E-1,1.8800116E-1,2.1304646E-1,2.3398304E-1,1.00234985E-1,3.5641384E-1,2.057848E-1,1.5005785E-1,1.4473534E-1,8.357668E-2,6.0484037E-2,9.637639E-2,4.8445165E-2,1.1232591E-1,9.300995E-2,0E0,9.407759E-2,2.7523088E-1,9.280014E-2,0E0,0E0,0E0,0E0,0E0,0E0,0E0,0E0,0E0,0E0,0E0,0E0,0E0,0E0,0E0,8.256531E-2,0E0,0E0,6.553084E-2,0E0,0E0,5.577135E-2,5.4207325E-2,0E0,0E0,0E0,0E0,0E0,0E0,0E0,0E0,0E0],"parents":[2147483647,0,0,1,1,2,2,3,3,4,4,5,5,6,6,8,8,9,9,10,10,11,11,12,12,13,13,14,14,15,15,16,16,17,17,18,18,19,19,20,20,21,21,22,22,24,24,25,25,26,26,42,42,45,45,48,48,49,49],"right_children":[2,4,6,8,10,12,14,-1,16,18,20,22,24,26,28,30,32,34,36,38,40,42,44,-1,46,48,50,-1,-1,-1,-1,-1,-1,-1,-1,-1,-1,-1,-1,-1,-1,-1,52,-1,-1,54,-1,-1,56,58,-1,-1,-1,-1,-1,-1,-1,-1,-1],"split_conditions":[2.0453031E-1,8.594271E-2,3.7175217E-1,1.1325783E-2,1.4390406E-1,2.7981347E-1,6.182545E-1,-5.658976E-3,7.038835E-2,1.212525E-1,1.7988008E-1,2.398401E-1,9.830097E-2,3.9259622E-1,9.896552E-1,8.737864E-2,6.595603E-2,9.8906404E-1,9.892611E-1,1.538974E-1,9.883744E-1,9.223301E-2,1.23917386E-1,7.729284E-3,2.1052632E-1,3.000487E-1,3.8395336E-1,2.4213872E-3,2.0518841E-2,-2.027532E-3,1.34311505E-2,-3.23642E-3,-2.3175797E-3,-1.8257281E-3,-1.095494E-3,-1.0232378E-3,-1.6777248E-4,3.4061597E-6,1.0344373E-3,7.383837E-4,2.089142E-3,4.5985905E-3,1.272485E-1,2.2015006E-3,4.8139915E-3,9.910345E-1,6.744172E-3,-1.1154854E-3,2.5523624E-1,5.216522E-1,1.0575029E-2,1.1432709E-3,2.9590277E-3,3.4158272E-3,6.065455E-3,6.256335E-3,1.0287755E-2,1.3385743E-2,1.8628974E-2],"split_indices":[167,167,167,167,167,167,167,0,59,167,167,167,24,21,26,24,167,131,40,160,33,59,118,0,13,161,163,0,0,0,0,0,0,0,0,0,0,0,0,0,0,0,20,0,0,33,0,0,105,167,0,0,0,0,0,0,0,0,0],"split_type":[0,0,0,0,0,0,0,0,0,0,0,0,0,0,0,0,0,0,0,0,0,0,0,0,0,0,0,0,0,0,0,0,0,0,0,0,0,0,0,0,0,0,0,0,0,0,0,0,0,0,0,0,0,0,0,0,0,0,0],"sum_hessian":[8.259E3,6.455E3,1.804E3,2.503E3,3.952E3,1.513E3,2.91E2,7.04E2,1.799E3,2.575E3,1.377E3,9.6E2,5.53E2,2.58E2,3.3E1,5E0,1.794E3,1.722E3,8.53E2,9.35E2,4.42E2,5.18E2,4.42E2,1.95E2,3.58E2,1.29E2,1.29E2,2E0,3.1E1,3E0,2E0,8.88E2,9.06E2,1.066E3,6.56E2,4.58E2,3.95E2,5.04E2,4.31E2,8.6E1,3.56E2,9.1E1,4.27E2,4.1E1,4.01E2,1.07E2,2.51E2,6E0,1.23E2,8.9E1,4E1,8.1E1,3.46E2,5.2E1,5.5E1,1.6E1,1.07E2,7.5E1,1.4E1],"tree_param":{"num_deleted":"0","num_feature":"168","num_nodes":"59","size_leaf_vector":"1"}},{"base_weights":[7.3870484E-5,-3.39352E-2,9.2290446E-2,-1.0507913E-1,-2.4430528E-2,5.6052346E-2,1.394394E-1,3.219449E-3,-1.0564369E-1,-3.9479632E-2,-7.1932008E-3,1.0423724E-2,6.6647254E-2,1.1625936E-1,2.2514728E-1,-5.4306886E-3,-2.851125E-3,-5.1340614E-2,-3.222272E-2,-2.027118E-2,8.606554E-3,-5.1158137E-4,1.3889464E-3,4.9469482E-2,8.307211E-2,1.8042131E-1,1.0157491E-1,3.3078298E-1,1.9250561E-1,-2.9489493E-3,-2.1661385E-3,9.687826E-3,-3.2710664E-2,-2.8453413E-2,-6.6051316E-3,-8.194568E-3,2.1357786E-2,3.1734757E-2,2.9970927E-3,1.0916067E-1,7.0922814E-2,2.522324E-1,1.5524551E-1,5.97162E-2,1.1814696E-1,1.8840631E-2,1.0493308E-2,1.4476974E-1,2.2482602E-1,-2.280597E-3,-1.3676464E-3,5.3034932E-3,-1.4633783E-3,-7.273675E-4,7.987532E-4,-1.1290306E-3,6.557334E-5,6.412128E-4,2.124342E-3,2.2045393E-3,-3.3833152E-5,3.441968E-3,6.550942E-3,2.4238464E-3,4.2139716E-3,1.0276708E-2,1.9927656E-2,5.799486E-3,8.962156E-3,1.8065736E-3,4.264004E-3,4.031009E-3,6.3875597E-3,5.0519053E-3,8.94086E-3,8.764857E-3,1.2819895E-2],"categories":[],"categories_nodes":[],"categories_segments":[],"categories_sizes":[],"default_left":[0,0,0,0,0,0,0,0,0,0,0,0,0,0,0,0,0,0,0,0,0,0,0,0,0,0,0,0,0,0,0,0,0,0,0,0,0,0,0,0,0,0,0,0,0,0,0,0,0,0,0,0,0,0,0,0,0,0,0,0,0,0,0,0,0,0,0,0,0,0,0,0,0,0,0,0,0],"id":5,"left_children":[1,3,5,7,9,11,13,-1,15,17,19,21,23,25,27,-1,-1,29,31,33,35,-1,-1,37,39,41,43,45,47,-1,-1,-1,49,51,53,55,57,59,-1,61,63,65,67,69,71,-1,-1,73,75,-1,-1,-1,-1,-1,-1,-1,-1,-1,-1,-1,-1,-1,-1,-1,-1,-1,-1,-1,-1,-1,-1,-1,-1,-1,-1,-1,-1],"loss_changes":[2.5945778E1,4.0843835E0,3.8006268E0,7.450104E-2,1.3831301E0,6.093955E-1,1.8969612E0,0E0,4.8998356E-2,2.4339867E-1,5.140605E-1,8.3650395E-2,2.8480387E-1,7.015009E-1,6.431885E-1,0E0,0E0,6.1160088E-2,1.9915986E-1,1.5199739E-1,2.4161786E-1,0E0,0E0,8.465123E-2,1.5770984E-1,2.1575642E-1,4.2580462E-1,1.6217375E-1,2.1276426E-1,0E0,0E0,0E0,1.2295663E-1,5.2544475E-2,8.888878E-2,6.516508E-2,1.14230216E-1,6.8781585E-2,0E0,1.2752283E-1,9.7648025E-2,1.6402698E-1,7.430744E-2,1.0231936E-1,1.2684393E-1,0E0,0E0,7.8172445E-2,9.235048E-2,0E0,0E0,0E0,0E0,0E0,0E0,0E0,0E0,0E0,0E0,0E0,0E0,0E0,0E0,0E0,0E0,0E0,0E0,0E0,0E0,0E0,0E0,0E0,0E0,0E0,0E0,0E0,0E0],"parents":[2147483647,0,0,1,1,2,2,3,3,4,4,5,5,6,6,8,8,9,9,10,10,11,11,12,12,13,13,14,14,17,17,18,18,19,19,20,20,23,23,24,24,25,25,26,26,27,27,28,28,32,32,33,33,34,34,35,35,36,36,37,37,39,39,40,40,41,41,42,42,43,43,44,44,47,47,48,48],"right_children":[2,4,6,8,10,12,14,-1,16,18,20,22,24,26,28,-1,-1,30,32,34,36,-1,-1,38,40,42,44,46,48,-1,-1,-1,50,52,54,56,58,60,-1,62,64,66,68,70,72,-1,-1,74,76,-1,-1,-1,-1,-1,-1,-1,-1,-1,-1,-1,-1,-1,-1,-1,-1,-1,-1,-1,-1,-1,-1,-1,-1,-1,-1,-1,-1],"split_conditions":[1.8187875E-1,1.1325783E-2,3.4096444E-1,7.524272E-2,1.06595606E-1,2.3477837E-1,3.5976017E-1,3.219449E-3,1.1325783E-2,8.061293E-2,9.8945814E-1,1.4723517E-1,2.2851433E-1,2.1168247E-2,7.038835E-2,-5.4306886E-3,-2.851125E-3,7.528315E-2,6.553398E-2,2.3331709E-1,2.0506576E-1,-5.1158137E-4,1.3889464E-3,1.6255829E-1,9.951457E-2,1.1183226E-2,2.0652898E-1,9.9211824E-1,3.799318E-1,-2.9489493E-3,-2.1661385E-3,9.687826E-3,6.995337E-2,7.038835E-2,1.4990006E-1,1.2258495E-1,1.865423E-1,4.7628555E-2,2.9970927E-3,1.8787475E-1,2.9371652E-1,4.5786655E-1,3.604593E-2,2.3317789E-1,2.8007793E-1,1.8840631E-2,1.0493308E-2,3.9600584E-1,9.9004924E-1,-2.280597E-3,-1.3676464E-3,5.3034932E-3,-1.4633783E-3,-7.273675E-4,7.987532E-4,-1.1290306E-3,6.557334E-5,6.412128E-4,2.124342E-3,2.2045393E-3,-3.3833152E-5,3.441968E-3,6.550942E-3,2.4238464E-3,4.2139716E-3,1.0276708E-2,1.9927656E-2,5.799486E-3,8.962156E-3,1.8065736E-3,4.264004E-3,4.031009E-3,6.3875597E-3,5.0519053E-3,8.94086E-3,8.764857E-3,1.2819895E-2],"split_indices":[153,139,161,38,153,161,6,0,153,6,117,6,153,67,150,0,0,153,45,161,161,0,0,6,17,67,62,159,105,0,0,0,153,45,13,90,90,109,0,97,161,161,165,139,21,0,0,161,33,0,0,0,0,0,0,0,0,0,0,0,0,0,0,0,0,0,0,0,0,0,0,0,0,0,0,0,0],"split_type":[0,0,0,0,0,0,0,0,0,0,0,0,0,0,0,0,0,0,0,0,0,0,0,0,0,0,0,0,0,0,0,0,0,0,0,0,0,0,0,0,0,0,0,0,0,0,0,0,0,0,0,0,0,0,0,0,0,0,0,0,0,0,0,0,0,0,0,0,0,0,0,0,0,0,0,0,0],"sum_hessian":[8.271E3,6.043E3,2.228E3,7.11E2,5.332E3,1.261E3,9.67E2,2E0,7.09E2,2.846E3,2.486E3,2.38E2,1.023E3,7.63E2,2.04E2,6.86E2,2.3E1,1.078E3,1.768E3,1.36E3,1.126E3,1.08E2,1.3E2,5.02E2,5.21E2,1.4E2,6.23E2,4.6E1,1.58E2,5.95E2,4.83E2,3E0,1.765E3,8.5E2,5.1E2,4.86E2,6.4E2,1.79E2,3.23E2,1.63E2,3.58E2,3.4E1,1.06E2,1.78E2,4.45E2,3.3E1,1.3E1,6.6E1,9.2E1,5.57E2,1.208E3,2E0,8.48E2,3.79E2,1.31E2,1.95E2,2.91E2,4.51E2,1.89E2,1.31E2,4.8E1,5.5E1,1.08E2,1.26E2,2.32E2,2.7E1,7E0,3.9E1,6.7E1,9.1E1,8.7E1,7.8E1,3.67E2,2.9E1,3.7E1,3.5E1,5.7E1],"tree_param":{"num_deleted":"0","num_feature":"168","num_nodes":"77","size_leaf_vector":"1"}},{"base_weights":[3.9096738E-4,-2.9903753E-2,1.0852141E-1,-7.03889E-2,-1.2067664E-2,8.6658865E-2,2.2236013E-1,-5.1143756E-3,-5.3775363E-2,-2.5800284E-2,1.3956573E-2,6.220915E-2,1.1392819E-1,2.0351154E-1,3.5387096E-1,1.2247864E-1,-5.442489E-2,-3.1574465E-2,-1.4776248E-2,1.9848594E-3,2.5695516E-2,4.895482E-2,7.454263E-2,3.781871E-3,1.1917806E-1,1.6774476E-1,2.4142142E-1,1.9984269E-3,3.71731E-1,-2.244279E-3,1.2584074E-2,-3.139206E-3,-2.4436542E-3,-1.9441401E-3,-2.5861826E-2,-1.3553554E-3,-5.1201467E-4,-1.4487885E-4,1.0022834E-3,7.9294335E-4,1.7333678E-3,1.0027683E-3,5.5402663E-2,1.4799234E-3,3.938915E-3,5.224588E-3,1.3395232E-1,-1.0152705E-3,8.947018E-3,1.0426176E-2,1.3917443E-2,1.0898108E-2,2.0545322E-2,1.4162214E-3,-1.3617364E-3,4.15741E-3,2.4952963E-3,6.9716065E-3,3.7613374E-3],"categories":[],"categories_nodes":[],"categories_segments":[],"categories_sizes":[],"default_left":[0,0,0,0,0,0,0,0,0,0,0,0,0,0,0,0,0,0,0,0,0,0,0,0,0,0,0,0,0,0,0,0,0,0,0,0,0,0,0,0,0,0,0,0,0,0,0,0,0,0,0,0,0,0,0,0,0,0,0],"id":6,"left_children":[1,3,5,7,9,11,13,-1,15,17,19,21,23,25,27,29,31,33,35,37,39,41,43,-1,45,47,49,-1,51,-1,-1,-1,-1,-1,53,-1,-1,-1,-1,-1,-1,-1,55,-1,-1,-1,57,-1,-1,-1,-1,-1,-1,-1,-1,-1,-1,-1,-1],"loss_changes":[2.7002234E1,4.648731E0,4.4705334E0,9.9492073E-1,1.5982103E0,1.0030031E0,6.468334E-1,0E0,1.5297318E-1,1.8585122E-1,2.1707597E-1,1.2729192E-1,1.3849068E-1,3.0661678E-1,1.8187666E-1,1.16048954E-1,5.6470156E-2,7.367146E-2,5.6105793E-2,6.612778E-2,6.62328E-2,7.203734E-2,5.8014393E-2,0E0,1.3517666E-1,2.2890806E-1,8.818722E-2,0E0,8.779335E-2,0E0,0E0,0E0,0E0,0E0,5.8339298E-2,0E0,0E0,0E0,0E0,0E0,0E0,0E0,4.8036993E-2,0E0,0E0,0E0,6.10137E-2,0E0,0E0,0E0,0E0,0E0,0E0,0E0,0E0,0E0,0E0,0E0,0E0],"parents":[2147483647,0,0,1,1,2,2,3,3,4,4,5,5,6,6,8,8,9,9,10,10,11,11,12,12,13,13,14,14,15,15,16,16,17,17,18,18,19,19,20,20,21,21,22,22,24,24,25,25,26,26,28,28,34,34,42,42,46,46],"right_children":[2,4,6,8,10,12,14,-1,16,18,20,22,24,26,28,30,32,34,36,38,40,42,44,-1,46,48,50,-1,52,-1,-1,-1,-1,-1,54,-1,-1,-1,-1,-1,-1,-1,56,-1,-1,-1,58,-1,-1,-1,-1,-1,-1,-1,-1,-1,-1,-1,-1],"split_conditions":[2.0453031E-1,7.528315E-2,3.7175217E-1,1.1325783E-2,1.392405E-1,2.6249167E-1,6.182545E-1,-5.1143756E-3,7.038835E-2,1.1392405E-1,1.5922718E-1,2.3117921E-1,1.4723517E-1,3.9600584E-1,1.9120586E-1,9.8738915E-1,5.4630246E-2,9.8778325E-1,8.927382E-2,2.834876E-1,1.7388408E-1,1.23917386E-1,1.6707258E-1,3.781871E-3,3.017988E-1,3.000487E-1,4.5103264E-1,1.9984269E-3,9.8945814E-1,-2.244279E-3,1.2584074E-2,-3.139206E-3,-2.4436542E-3,-1.9441401E-3,1.3881177E-2,-1.3553554E-3,-5.1201467E-4,-1.4487885E-4,1.0022834E-3,7.9294335E-4,1.7333678E-3,1.0027683E-3,1.00728154E-1,1.4799234E-3,3.938915E-3,5.224588E-3,5.8612082E-2,-1.0152705E-3,8.947018E-3,1.0426176E-2,1.3917443E-2,1.0898108E-2,2.0545322E-2,1.4162214E-3,-1.3617364E-3,4.15741E-3,2.4952963E-3,6.9716065E-3,3.7613374E-3],"split_indices":[167,167,167,160,167,167,167,0,38,167,160,167,20,21,76,5,167,117,20,21,167,90,35,0,167,161,167,0,117,0,0,0,0,0,23,0,0,0,0,0,0,0,31,0,0,0,81,0,0,0,0,0,0,0,0,0,0,0,0],"split_type":[0,0,0,0,0,0,0,0,0,0,0,0,0,0,0,0,0,0,0,0,0,0,0,0,0,0,0,0,0,0,0,0,0,0,0,0,0,0,0,0,0,0,0,0,0,0,0,0,0,0,0,0,0,0,0,0,0,0,0],"sum_hessian":[8.241E3,6.438E3,1.803E3,1.968E3,4.47E3,1.514E3,2.89E2,6.91E2,1.277E3,2.926E3,1.544E3,8E2,7.14E2,2.55E2,3.4E1,4E0,1.273E3,1.919E3,1.007E3,7.65E2,7.79E2,3.88E2,4.12E2,8.6E1,6.28E2,1.34E2,1.21E2,2E0,3.2E1,2E0,2E0,5.69E2,7.04E2,8.73E2,1.046E3,2.81E2,7.26E2,6.02E2,1.63E2,3.59E2,4.2E2,7.1E1,3.17E2,2.8E1,3.84E2,3.05E2,3.23E2,6E0,1.28E2,6.2E1,5.9E1,7E0,2.5E1,1.9E1,1.027E3,5.7E1,2.6E2,3.03E2,2E1],"tree_param":{"num_deleted":"0","num_feature":"168","num_nodes":"59","size_leaf_vector":"1"}},{"base_weights":[-3.4137565E-6,-3.1657286E-2,9.280478E-2,-6.9612674E-2,-1.5797433E-2,7.497708E-2,2.2163925E-1,-4.8577855E-3,-5.272642E-2,-2.8039986E-2,3.642738E-3,4.854451E-2,1.0561918E-1,2.0197849E-1,3.4778196E-1,1.2001439E-2,-2.7081203E-3,-3.5737503E-2,-2.2326346E-2,-3.4410955E-4,1.1976675E-2,4.031214E-2,6.440286E-2,9.0115175E-2,1.2336217E-1,1.1342061E-2,2.0810401E-1,1.9812742E-3,1.856089E-2,-2.1149E-3,-1.4231564E-3,-1.6804761E-3,-1.9336428E-2,3.1012835E-4,1.1977528E-3,1.0980607E-3,2.316599E-3,-1.2219475E-3,3.37459E-3,2.3026766E-4,4.631047E-3,2.150518E-3,1.2755276E-1,3.8966541E-3,-3.7218053E-3,1.7586493E-1,2.3701607E-1,2.9730233E-3,-1.0116713E-3,7.1806563E-3,5.5748136E-3,9.137976E-3,2.4357142E-3,1.2637251E-2,8.039447E-3],"categories":[],"categories_nodes":[],"categories_segments":[],"categories_sizes":[],"default_left":[0,0,0,0,0,0,0,0,0,0,0,0,0,0,0,0,0,0,0,0,0,0,0,0,0,0,0,0,0,0,0,0,0,0,0,0,0,0,0,0,0,0,0,0,0,0,0,0,0,0,0,0,0,0,0],"id":7,"left_children":[1,3,5,7,9,11,13,-1,15,17,19,21,23,25,27,-1,-1,29,31,-1,33,35,37,39,41,43,45,-1,-1,-1,-1,-1,47,-1,-1,-1,-1,-1,-1,-1,-1,-1,49,-1,-1,51,53,-1,-1,-1,-1,-1,-1,-1,-1],"loss_changes":[2.4280413E1,3.7088227E0,4.811302E0,8.0117035E-1,1.0349147E0,1.4916582E0,5.62171E-1,0E0,2.4953485E-1,1.16543055E-1,1.4628632E-1,1.2717223E-1,2.2408295E-1,2.580471E-1,1.756587E-1,0E0,0E0,5.099702E-2,4.912263E-2,0E0,6.3729525E-2,6.539714E-2,6.801057E-2,5.1235914E-2,1.2884665E-1,5.015649E-2,1.596508E-1,0E0,0E0,0E0,0E0,0E0,6.0998112E-2,0E0,0E0,0E0,0E0,0E0,0E0,0E0,0E0,0E0,7.786131E-2,0E0,0E0,5.2809954E-2,6.879902E-2,0E0,0E0,0E0,0E0,0E0,0E0,0E0,0E0],"parents":[2147483647,0,0,1,1,2,2,3,3,4,4,5,5,6,6,8,8,9,9,10,10,11,11,12,12,13,13,14,14,17,17,18,18,20,20,21,21,22,22,23,23,24,24,25,25,26,26,32,32,42,42,45,45,46,46],"right_children":[2,4,6,8,10,12,14,-1,16,18,20,22,24,26,28,-1,-1,30,32,-1,34,36,38,40,42,44,46,-1,-1,-1,-1,-1,48,-1,-1,-1,-1,-1,-1,-1,-1,-1,50,-1,-1,52,54,-1,-1,-1,-1,-1,-1,-1,-1],"split_conditions":[1.8787475E-1,7.195203E-2,3.8307795E-1,1.1325783E-2,1.272485E-1,2.54497E-1,6.182545E-1,-4.8577855E-3,6.553398E-2,9.7268485E-2,1.2658228E-1,2.2851433E-1,3.017988E-1,1.23917386E-1,9.896552E-1,1.2001439E-2,-2.7081203E-3,9.860093E-2,8.261159E-2,-3.4410955E-4,1.6655563E-1,1.272485E-1,8.194537E-2,1.836337E-1,1.2325116E-1,4.9444753E-1,3.9600584E-1,1.9812742E-3,1.856089E-2,-2.1149E-3,-1.4231564E-3,-1.6804761E-3,8.3277814E-2,3.1012835E-4,1.1977528E-3,1.0980607E-3,2.316599E-3,-1.2219475E-3,3.37459E-3,2.3026766E-4,4.631047E-3,2.150518E-3,3.7743386E-2,3.8966541E-3,-3.7218053E-3,5.6515228E-2,9.2309827E-1,2.9730233E-3,-1.0116713E-3,7.1806563E-3,5.5748136E-3,9.137976E-3,2.4357142E-3,1.2637251E-2,8.039447E-3],"split_indices":[167,167,167,167,167,167,167,0,45,111,6,167,167,41,26,0,0,167,20,0,167,97,90,154,27,23,21,0,0,0,0,0,20,0,0,0,0,0,0,0,0,0,137,0,0,81,114,0,0,0,0,0,0,0,0],"split_type":[0,0,0,0,0,0,0,0,0,0,0,0,0,0,0,0,0,0,0,0,0,0,0,0,0,0,0,0,0,0,0,0,0,0,0,0,0,0,0,0,0,0,0,0,0,0,0,0,0,0,0,0,0,0,0],"sum_hessian":[8.263E3,6.162E3,2.101E3,1.815E3,4.347E3,1.847E3,2.54E2,7.08E2,1.107E3,2.667E3,1.68E3,9.93E2,8.54E2,2.22E2,3.2E1,2E0,1.105E3,1.134E3,1.533E3,7.46E2,9.34E2,6.56E2,3.37E2,4.59E2,3.95E2,7E0,2.15E2,2E0,3E1,6.32E2,5.02E2,3.29E2,1.204E3,6.23E2,3.11E2,1.49E2,5.07E2,8E0,3.29E2,7E0,4.52E2,2E1,3.75E2,4E0,3E0,1.05E2,1.1E2,9E0,1.195E3,2.03E2,1.72E2,1.01E2,4E0,9.3E1,1.7E1],"tree_param":{"num_deleted":"0","num_feature":"168","num_nodes":"55","size_leaf_vector":"1"}},{"base_weights":[2.2198913E-4,-2.9767513E-2,8.8094115E-2,-6.622968E-2,-1.4516356E-2,6.912028E-2,1.9130696E-1,-4.6319873E-3,-2.5704291E-3,-2.6300613E-2,4.0193168E-3,4.672849E-2,9.70014E-2,1.6166824E-1,2.616741E-1,-3.2704487E-2,-2.0123089E-2,-4.893721E-3,1.462432E-2,6.781823E-4,5.089019E-2,3.982224E-3,1.0795392E-1,9.400325E-3,1.2824388E-1,-4.1137828E-5,2.7626568E-1,-2.0845437E-3,-1.4314136E-3,4.3066826E-2,-2.0862577E-2,-1.2731008E-3,-1.0401687E-4,2.4854136E-4,1.2148151E-3,2.0980118E-3,6.30222E-2,3.300881E-3,5.6574475E-3,3.9023752E-4,6.951272E-3,3.4074804E-1,1.1601301E-2,-1.0524655E-3,1.2146322E-2,-1.3817386E-3,-7.5763685E-4,1.1677328E-3,3.367224E-3,1.8331695E-2,8.845146E-3],"categories":[],"categories_nodes":[],"categories_segments":[],"categories_sizes":[],"default_left":[0,0,0,0,0,0,0,0,0,0,0,0,0,0,0,0,0,0,0,0,0,0,0,0,0,0,0,0,0,0,0,0,0,0,0,0,0,0,0,0,0,0,0,0,0,0,0,0,0,0,0],"id":8,"left_children":[1,3,5,7,9,11,13,-1,-1,15,17,19,21,23,25,27,29,31,33,-1,35,-1,37,-1,39,-1,41,-1,-1,43,45,-1,-1,-1,-1,-1,47,-1,-1,-1,-1,49,-1,-1,-1,-1,-1,-1,-1,-1,-1],"loss_changes":[2.1780258E1,3.4256663E0,4.105171E0,7.0478487E-1,9.493987E-1,1.1054878E0,6.3759804E-1,0E0,0E0,1.0445297E-1,1.5981509E-1,1.3640285E-1,1.5077543E-1,1.6165209E-1,3.640833E-1,4.7774434E-2,6.421524E-2,5.2778017E-2,7.0092216E-2,0E0,9.827018E-2,0E0,7.1547985E-2,0E0,1.0730839E-1,0E0,1.9604921E-1,0E0,0E0,2.0594494E-1,5.0361395E-2,0E0,0E0,0E0,0E0,0E0,5.134821E-2,0E0,0E0,0E0,0E0,6.335688E-2,0E0,0E0,0E0,0E0,0E0,0E0,0E0,0E0,0E0],"parents":[2147483647,0,0,1,1,2,2,3,3,4,4,5,5,6,6,9,9,10,10,11,11,12,12,13,13,14,14,15,15,16,16,17,17,18,18,20,20,22,22,24,24,26,26,29,29,30,30,36,36,41,41],"right_children":[2,4,6,8,10,12,14,-1,-1,16,18,20,22,24,26,28,30,32,34,-1,36,-1,38,-1,40,-1,42,-1,-1,44,46,-1,-1,-1,-1,-1,48,-1,-1,-1,-1,50,-1,-1,-1,-1,-1,-1,-1,-1,-1],"split_conditions":[1.8787475E-1,7.195203E-2,3.5976017E-1,1.1325783E-2,1.272485E-1,2.54497E-1,4.8434377E-1,-4.6319873E-3,-2.5704291E-3,9.9267155E-2,1.4990006E-1,1.3257828E-1,2.8247836E-1,3.7395892E-1,2.5426206E-1,8.261159E-2,7.773459E-3,7.528315E-2,1.505663E-1,6.781823E-4,2.2451699E-1,3.982224E-3,1.4390406E-1,9.400325E-3,2.873843E-1,-4.1137828E-5,5.6179776E-4,-2.0845437E-3,-1.4314136E-3,1.6853933E-3,1.0726183E-1,-1.2731008E-3,-1.0401687E-4,2.4854136E-4,1.2148151E-3,2.0980118E-3,7.76699E-2,3.300881E-3,5.6574475E-3,3.9023752E-4,6.951272E-3,9.9044335E-1,1.1601301E-2,-1.0524655E-3,1.2146322E-2,-1.3817386E-3,-7.5763685E-4,1.1677328E-3,3.367224E-3,1.8331695E-2,8.845146E-3],"split_indices":[167,167,167,139,167,167,167,0,0,160,160,146,167,2,91,20,23,20,41,0,167,0,55,0,154,0,134,0,0,8,34,0,0,0,0,0,129,0,0,0,0,82,0,0,0,0,0,0,0,0,0],"split_type":[0,0,0,0,0,0,0,0,0,0,0,0,0,0,0,0,0,0,0,0,0,0,0,0,0,0,0,0,0,0,0,0,0,0,0,0,0,0,0,0,0,0,0,0,0,0,0,0,0,0,0],"sum_hessian":[8.263E3,6.161E3,2.102E3,1.816E3,4.345E3,1.777E3,3.25E2,6.89E2,1.127E3,2.656E3,1.689E3,9.87E2,7.9E2,2.31E2,9.4E1,1.302E3,1.354E3,9.18E2,7.71E2,1.1E2,8.77E2,2.98E2,4.92E2,1.32E2,9.9E1,5E0,8.9E1,4.46E2,8.56E2,1.5E1,1.339E3,1.12E2,8.06E2,3.79E2,3.92E2,4.95E2,3.82E2,4.1E1,4.51E2,7E0,9.2E1,3.5E1,5.4E1,1.2E1,3E0,6.4E2,6.99E2,3.1E1,3.51E2,3E1,5E0],"tree_param":{"num_deleted":"0","num_feature":"168","num_nodes":"51","size_leaf_vector":"1"}},{"base_weights":[2.1360569E-4,-2.5815755E-2,9.2326134E-2,-5.549544E-2,-7.297611E-3,7.460792E-2,1.9761063E-1,-4.379211E-3,-4.327793E-2,-1.8765492E-2,1.4182057E-2,5.7697356E-2,1.0528382E-1,1.8017307E-1,3.0605602E-1,-2.5716207E-3,-1.8272935E-3,-2.3499964E-2,-9.683773E-3,2.2814695E-3,2.2266516E-2,4.52735E-2,7.102317E-2,3.2698368E-3,1.0944709E-1,2.6263451E-2,1.87081E-1,1.7191852E-3,3.2151935E-1,-1.4148398E-3,-1.6163506E-2,-7.7327905E-4,2.5731879E-5,-4.8093952E-4,4.8547325E-4,6.625061E-4,1.5622368E-3,8.18227E-4,5.044897E-2,1.7999854E-3,3.7899585E-3,5.012244E-3,6.2735775E-3,-3.584315E-3,3.6213412E-3,1.5688936E-1,2.1401393E-1,4.8408927E-3,3.330138E-1,3.6552928E-3,-8.8055554E-4,4.2233146E-3,2.3394173E-3,9.445749E-3,6.5177255E-3,1.1534E-2,7.252476E-3,1.7697968E-2,6.8416744E-3],"categories":[],"categories_nodes":[],"categories_segments":[],"categories_sizes":[],"default_left":[0,0,0,0,0,0,0,0,0,0,0,0,0,0,0,0,0,0,0,0,0,0,0,0,0,0,0,0,0,0,0,0,0,0,0,0,0,0,0,0,0,0,0,0,0,0,0,0,0,0,0,0,0,0,0,0,0,0,0],"id":9,"left_children":[1,3,5,7,9,11,13,-1,15,17,19,21,23,25,27,-1,-1,29,31,33,35,37,39,-1,41,43,45,-1,47,-1,49,-1,-1,-1,-1,-1,-1,-1,51,-1,-1,-1,-1,-1,-1,53,55,-1,57,-1,-1,-1,-1,-1,-1,-1,-1,-1,-1],"loss_changes":[1.99147E1,3.558887E0,3.3990364E0,9.3735886E-1,9.828617E-1,8.073206E-1,4.421959E-1,0E0,9.454608E-2,1.1160797E-1,1.3358465E-1,1.6449451E-1,8.72159E-2,2.3855782E-1,1.3636088E-1,0E0,0E0,5.5119395E-2,5.081565E-2,4.8509527E-2,6.475189E-2,7.860851E-2,6.300044E-2,0E0,6.3794136E-2,5.3332463E-2,1.445036E-1,0E0,5.3879976E-2,0E0,7.090478E-2,0E0,0E0,0E0,0E0,0E0,0E0,0E0,5.8905244E-2,0E0,0E0,0E0,0E0,0E0,0E0,6.5339565E-2,7.700157E-2,0E0,5.3344965E-2,0E0,0E0,0E0,0E0,0E0,0E0,0E0,0E0,0E0,0E0],"parents":[2147483647,0,0,1,1,2,2,3,3,4,4,5,5,6,6,8,8,9,9,10,10,11,11,12,12,13,13,14,14,17,17,18,18,19,19,20,20,21,21,22,22,24,24,25,25,26,26,28,28,30,30,38,38,45,45,46,46,48,48],"right_children":[2,4,6,8,10,12,14,-1,16,18,20,22,24,26,28,-1,-1,30,32,34,36,38,40,-1,42,44,46,-1,48,-1,50,-1,-1,-1,-1,-1,-1,-1,52,-1,-1,-1,-1,-1,-1,54,56,-1,58,-1,-1,-1,-1,-1,-1,-1,-1,-1,-1],"split_conditions":[2.0453031E-1,8.5276484E-2,3.8307795E-1,1.1325783E-2,1.4390406E-1,2.8247836E-1,6.182545E-1,-4.379211E-3,6.528981E-2,1.1992005E-1,1.4123918E-1,2.398401E-1,1.4057295E-1,2.2851433E-1,9.896552E-1,-2.5716207E-3,-1.8272935E-3,9.8906404E-1,1.3790806E-1,1.0193205E-1,1.7388408E-1,1.23917386E-1,1.2458361E-1,3.2698368E-3,3.2511657E-1,2.1139796E-1,3.9600584E-1,1.7191852E-3,2.0544142E-2,-1.4148398E-3,7.773459E-3,-7.7327905E-4,2.5731879E-5,-4.8093952E-4,4.8547325E-4,6.625061E-4,1.5622368E-3,8.18227E-4,7.888349E-2,1.7999854E-3,3.7899585E-3,5.012244E-3,6.2735775E-3,-3.584315E-3,3.6213412E-3,8.495145E-2,9.1948915E-1,4.8408927E-3,5.5916127E-2,3.6552928E-3,-8.8055554E-4,4.2233146E-3,2.3394173E-3,9.445749E-3,6.5177255E-3,1.1534E-2,7.252476E-3,1.7697968E-2,6.8416744E-3],"split_indices":[167,167,167,167,167,167,167,0,167,167,146,167,34,153,26,0,0,131,6,48,167,34,118,0,167,133,21,0,65,0,23,0,0,0,0,0,0,0,52,0,0,0,0,0,0,164,114,0,109,0,0,0,0,0,0,0,0,0,0],"split_type":[0,0,0,0,0,0,0,0,0,0,0,0,0,0,0,0,0,0,0,0,0,0,0,0,0,0,0,0,0,0,0,0,0,0,0,0,0,0,0,0,0,0,0,0,0,0,0,0,0,0,0,0,0,0,0,0,0,0,0],"sum_hessian":[8.304E3,6.475E3,1.829E3,2.487E3,3.988E3,1.567E3,2.62E2,7.02E2,1.785E3,2.6E3,1.388E3,1.012E3,5.55E2,2.28E2,3.4E1,8.72E2,9.13E2,1.708E3,8.92E2,5.62E2,8.26E2,5.26E2,4.86E2,5.3E1,5.02E2,1E1,2.18E2,2E0,3.2E1,1.063E3,6.45E2,5.76E2,3.16E2,2.15E2,3.47E2,4E2,4.26E2,8E1,4.46E2,4.8E1,4.38E2,2.95E2,2.07E2,3E0,7E0,1.06E2,1.12E2,2E0,3E1,8E0,6.37E2,4.9E1,3.97E2,4.9E1,5.7E1,9.2E1,2E1,2.7E1,3E0],"tree_param":{"num_deleted":"0","num_feature":"168","num_nodes":"59","size_leaf_vector":"1"}},{"base_weights":[1.5388255E-4,-2.5384774E-2,8.492126E-2,-5.235059E-2,-7.956916E-3,6.613481E-2,1.7690387E-1,-4.1519227E-3,-4.0603727E-2,-1.7545238E-2,1.1589262E-2,4.5002643E-2,8.7858744E-2,1.4860605E-1,2.3943023E-1,8.57593E-3,-4.105288E-2,-1.4244715E-3,-1.37413945E-2,3.0051759E-5,9.7218587E-4,3.591384E-2,5.88373E-2,3.6106647E-3,9.788311E-2,9.404615E-3,1.2845562E-1,7.5900435E-2,2.6111364E-1,-2.4248455E-3,-1.7371081E-3,-9.933686E-4,-7.135457E-3,7.023041E-4,2.1044316E-3,8.423991E-2,2.6519764E-3,-5.870433E-4,5.0171544E-3,2.2338815E-3,1.3619457E-1,-2.6534523E-3,6.0593146E-3,9.373507E-3,1.471455E-2,1.2336183E-2,-4.0363552E-4,1.0585831E-2,3.7746085E-3,2.6569592E-3,7.178296E-3],"categories":[],"categories_nodes":[],"categories_segments":[],"categories_sizes":[],"default_left":[0,0,0,0,0,0,0,0,0,0,0,0,0,0,0,0,0,0,0,0,0,0,0,0,0,0,0,0,0,0,0,0,0,0,0,0,0,0,0,0,0,0,0,0,0,0,0,0,0,0,0],"id":10,"left_children":[1,3,5,7,9,11,13,-1,15,17,19,21,23,25,27,-1,29,-1,31,-1,-1,33,35,-1,37,-1,39,41,43,-1,-1,-1,45,-1,-1,47,-1,-1,-1,-1,49,-1,-1,-1,-1,-1,-1,-1,-1,-1,-1],"loss_changes":[1.7840477E1,2.9758172E0,3.2853756E0,8.615918E-1,7.213764E-1,7.241373E-1,5.3592205E-1,0E0,1.7496276E-1,1.0349655E-1,1.0592535E-1,9.923375E-2,1.22796535E-1,1.4418554E-1,3.3122396E-1,0E0,8.034539E-2,0E0,7.3574334E-2,0E0,0E0,6.0151815E-2,4.794538E-2,0E0,6.297684E-2,0E0,9.12621E-2,7.918597E-2,1.4068747E-1,0E0,0E0,0E0,1.890908E-1,0E0,0E0,6.0821652E-2,0E0,0E0,0E0,0E0,5.5446863E-2,0E0,0E0,0E0,0E0,0E0,0E0,0E0,0E0,0E0,0E0],"parents":[2147483647,0,0,1,1,2,2,3,3,4,4,5,5,6,6,8,8,9,9,10,10,11,11,12,12,13,13,14,14,16,16,18,18,21,21,22,22,24,24,26,26,27,27,28,28,32,32,35,35,40,40],"right_children":[2,4,6,8,10,12,14,-1,16,18,20,22,24,26,28,-1,30,-1,32,-1,-1,34,36,-1,38,-1,40,42,44,-1,-1,-1,46,-1,-1,48,-1,-1,-1,-1,50,-1,-1,-1,-1,-1,-1,-1,-1,-1,-1],"split_conditions":[1.9720186E-1,8.594271E-2,3.5976017E-1,1.1325783E-2,1.4390406E-1,2.54497E-1,4.8434377E-1,-4.1519227E-3,6.553398E-2,8.261159E-2,1.2591605E-1,2.2451699E-1,2.8247836E-1,1.7473789E-2,3.248904E-1,8.57593E-3,6.595603E-2,-1.4244715E-3,9.8906404E-1,3.0051759E-5,9.7218587E-4,1.4923385E-1,9.7087376E-2,3.6106647E-3,1.4057295E-1,9.404615E-3,2.5328788E-1,9.898522E-1,3.2151774E-2,-2.4248455E-3,-1.7371081E-3,-9.933686E-4,8.3277814E-2,7.023041E-4,2.1044316E-3,1.6788808E-1,2.6519764E-3,-5.870433E-4,5.0171544E-3,2.2338815E-3,1.6122586E-1,-2.6534523E-3,6.0593146E-3,9.373507E-3,1.471455E-2,1.2336183E-2,-4.0363552E-4,1.0585831E-2,3.7746085E-3,2.6569592E-3,7.178296E-3],"split_indices":[167,167,167,167,167,167,167,0,45,20,48,90,167,74,119,0,167,0,124,0,0,146,24,0,153,0,77,19,4,0,0,0,20,0,0,118,0,0,0,0,118,0,0,0,0,0,0,0,0,0,0],"split_type":[0,0,0,0,0,0,0,0,0,0,0,0,0,0,0,0,0,0,0,0,0,0,0,0,0,0,0,0,0,0,0,0,0,0,0,0,0,0,0,0,0,0,0,0,0,0,0,0,0,0,0],"sum_hessian":[8.239E3,6.332E3,1.907E3,2.485E3,3.847E3,1.585E3,3.22E2,7.04E2,1.781E3,2.581E3,1.266E3,8.05E2,7.8E2,2.24E2,9.8E1,3E0,1.778E3,6.81E2,1.9E3,5.18E2,7.48E2,4.88E2,3.17E2,2.97E2,4.83E2,7.6E1,1.48E2,1.2E1,8.6E1,8.82E2,8.96E2,1.005E3,8.95E2,1E2,3.88E2,6.2E1,2.55E2,5E0,4.78E2,1.3E1,1.35E2,3E0,9E0,2.6E1,6E1,2E0,8.93E2,3E0,5.9E1,9E0,1.26E2],"tree_param":{"num_deleted":"0","num_feature":"168","num_nodes":"51","size_leaf_vector":"1"}},{"base_weights":[3.2630906E-4,-2.4871936E-2,6.8541415E-2,-7.721524E-2,-1.7938351E-2,4.231075E-2,1.02101356E-1,3.4814232E-3,-3.9369995E-3,-2.9691452E-2,-4.679818E-3,1.8968033E-2,5.4524343E-2,1.7837042E-1,8.802795E-2,-2.0507497E-3,-2.4781488E-2,-1.6159365E-2,6.649514E-3,-5.758216E-4,2.9052889E-2,4.0332586E-2,6.808095E-2,2.4162237E-1,1.4206763E-1,7.571279E-2,1.3246241E-1,1.1708648E-1,-2.5205513E-2,-9.1595267E-4,1.2385972E-3,-2.6760128E-4,1.615573E-2,4.556608E-2,9.121737E-4,2.815606E-3,1.3365792E-3,9.064569E-2,2.9613168E-3,2.8119932E-3,2.681593E-1,3.1194931E-3,1.545989E-1,3.8631886E-2,8.494453E-2,1.1280385E-1,1.644111E-1,1.30148735E-2,-8.650306E-4,-1.6308586E-3,-8.9798623E-4,1.1745454E-3,-5.794898E-5,3.884685E-3,1.5114154E-3,7.869064E-3,4.0330174E-3,1.4464499E-2,6.4795E-3,4.8389686E-3,8.736961E-3,5.173564E-4,2.7731967E-3,4.0896884E-3,7.914256E-3,3.6260562E-3,6.3834595E-3,5.3936E-3,9.486388E-3],"categories":[],"categories_nodes":[],"categories_segments":[],"categories_sizes":[],"default_left":[0,0,0,0,0,0,0,0,0,0,0,0,0,0,0,0,0,0,0,0,0,0,0,0,0,0,0,0,0,0,0,0,0,0,0,0,0,0,0,0,0,0,0,0,0,0,0,0,0,0,0,0,0,0,0,0,0,0,0,0,0,0,0,0,0,0,0,0,0],"id":11,"left_children":[1,3,5,7,9,11,13,-1,-1,15,17,19,21,23,25,-1,27,29,31,-1,33,35,37,39,41,43,45,47,49,-1,-1,-1,51,53,-1,-1,-1,55,-1,-1,57,-1,59,61,63,65,67,-1,-1,-1,-1,-1,-1,-1,-1,-1,-1,-1,-1,-1,-1,-1,-1,-1,-1,-1,-1,-1,-1],"loss_changes":[1.4273738E1,2.1994028E0,1.9675522E0,5.8122635E-2,8.344805E-1,3.5790467E-1,1.0383425E0,0E0,0E0,1.4947248E-1,3.275875E-1,1.3310598E-1,1.5617013E-1,3.1469917E-1,4.4470882E-1,0E0,1.2049544E-1,9.817326E-2,1.4391916E-1,0E0,5.8635294E-2,8.489865E-2,8.606744E-2,2.518034E-1,9.032428E-2,2.2025442E-1,9.3877554E-2,1.1697052E-1,1.013149E-1,0E0,0E0,0E0,8.5918546E-2,6.135112E-2,0E0,0E0,0E0,7.6090336E-2,0E0,0E0,7.817721E-2,0E0,7.3334455E-2,5.9899926E-2,1.4388299E-1,5.309677E-2,6.750393E-2,0E0,0E0,0E0,0E0,0E0,0E0,0E0,0E0,0E0,0E0,0E0,0E0,0E0,0E0,0E0,0E0,0E0,0E0,0E0,0E0,0E0,0E0],"parents":[2147483647,0,0,1,1,2,2,3,3,4,4,5,5,6,6,9,9,10,10,11,11,12,12,13,13,14,14,16,16,17,17,18,18,20,20,21,21,22,22,23,23,24,24,25,25,26,26,27,27,28,28,32,32,33,33,37,37,40,40,42,42,43,43,44,44,45,45,46,46],"right_children":[2,4,6,8,10,12,14,-1,-1,16,18,20,22,24,26,-1,28,30,32,-1,34,36,38,40,42,44,46,48,50,-1,-1,-1,52,54,-1,-1,-1,56,-1,-1,58,-1,60,62,64,66,68,-1,-1,-1,-1,-1,-1,-1,-1,-1,-1,-1,-1,-1,-1,-1,-1,-1,-1,-1,-1,-1,-1],"split_conditions":[1.8187875E-1,1.1325783E-2,3.4096444E-1,7.524272E-2,1.06595606E-1,1.6255829E-1,1.6275587E-2,3.4814232E-3,-3.9369995E-3,6.79547E-2,9.889655E-1,9.885714E-1,2.2851433E-1,2.9317045E-1,3.7175217E-1,-2.0507497E-3,7.038835E-2,2.1785477E-1,2.1042377E-1,-5.758216E-4,4.2087728E-1,1.4044944E-3,3.681288E-1,2.5572333E-1,2.2451699E-1,1.6122586E-1,3.5976017E-1,1.0800971E-1,9.878818E-1,-9.1595267E-4,1.2385972E-3,-2.6760128E-4,8.889506E-1,2.8057912E-2,9.121737E-4,2.815606E-3,1.3365792E-3,1.48776835E-2,2.9613168E-3,2.8119932E-3,3.4258744E-1,3.1194931E-3,2.2584943E-1,1.9720186E-1,1.9417475E-1,9.893596E-1,2.3042753E-1,1.30148735E-2,-8.650306E-4,-1.6308586E-3,-8.9798623E-4,1.1745454E-3,-5.794898E-5,3.884685E-3,1.5114154E-3,7.869064E-3,4.0330174E-3,1.4464499E-2,6.4795E-3,4.8389686E-3,8.736961E-3,5.173564E-4,2.7731967E-3,4.0896884E-3,7.914256E-3,3.6260562E-3,6.3834595E-3,5.3936E-3,9.486388E-3],"split_indices":[153,139,161,38,153,6,60,0,0,146,33,33,153,128,55,0,59,13,161,0,163,162,163,56,104,27,139,10,117,0,0,0,149,102,0,0,0,60,0,0,114,0,6,139,59,26,58,0,0,0,0,0,0,0,0,0,0,0,0,0,0,0,0,0,0,0,0,0,0],"split_type":[0,0,0,0,0,0,0,0,0,0,0,0,0,0,0,0,0,0,0,0,0,0,0,0,0,0,0,0,0,0,0,0,0,0,0,0,0,0,0,0,0,0,0,0,0,0,0,0,0,0,0,0,0,0,0,0,0,0,0,0,0,0,0,0,0,0,0,0,0],"sum_hessian":[8.302E3,6.063E3,2.239E3,7.08E2,5.355E3,1.258E3,9.81E2,2E0,7.06E2,2.838E3,2.517E3,4.33E2,8.25E2,1.51E2,8.3E2,8.85E2,1.953E3,1.25E3,1.267E3,1.08E2,3.25E2,4.05E2,4.2E2,5.3E1,9.8E1,6.52E2,1.78E2,5E0,1.948E3,1.194E3,5.6E1,5.62E2,7.05E2,1.29E2,1.96E2,1.92E2,2.13E2,1.23E2,2.97E2,7E0,4.6E1,1.4E1,8.4E1,1.31E2,5.21E2,1.13E2,6.5E1,2E0,3E0,1.005E3,9.43E2,5.01E2,2.04E2,4.2E1,8.7E1,1.6E1,1.07E2,4E1,6E0,2.1E1,6.3E1,4.8E1,8.3E1,4.94E2,2.7E1,2.9E1,8.4E1,2E1,4.5E1],"tree_param":{"num_deleted":"0","num_feature":"168","num_nodes":"69","size_leaf_vector":"1"}},{"base_weights":[1.39587055E-5,-2.5160538E-2,6.98933E-2,-5.644068E-2,-1.3850347E-2,5.4231636E-2,1.619197E-1,-3.744672E-3,-4.2238522E-2,-2.4123142E-2,1.7670968E-4,3.6883216E-2,7.88712E-2,1.4768048E-1,2.8041968E-1,1.27998E-1,-2.1855875E-3,-1.6267358E-3,-1.9601017E-2,-3.5846134E-4,4.6919068E-4,3.0128023E-2,5.178691E-2,3.4908974E-3,9.320077E-2,6.726857E-4,1.5351814E-1,1.4937783E-3,2.9565734E-1,-1.6150719E-3,1.2420818E-2,3.685481E-2,-1.0220066E-3,-1.3497917E-4,1.6457398E-3,-4.764934E-4,2.747075E-3,8.629865E-4,4.9387896E-3,1.2673582E-1,1.8489407E-1,1.5782317E-2,5.5866097E-3,1.4721225E-2,-8.2854216E-4,8.097454E-3,5.401925E-3,4.9259798E-3,9.753951E-3],"categories":[],"categories_nodes":[],"categories_segments":[],"categories_sizes":[],"default_left":[0,0,0,0,0,0,0,0,0,0,0,0,0,0,0,0,0,0,0,0,0,0,0,0,0,0,0,0,0,0,0,0,0,0,0,0,0,0,0,0,0,0,0,0,0,0,0,0,0],"id":12,"left_children":[1,3,5,7,9,11,13,-1,15,17,19,21,23,25,27,29,-1,-1,31,-1,-1,33,35,-1,37,-1,39,-1,41,-1,-1,43,-1,-1,-1,-1,-1,-1,-1,45,47,-1,-1,-1,-1,-1,-1,-1,-1],"loss_changes":[1.4546636E1,2.1498735E0,3.1476374E0,3.9773464E-1,6.435418E-1,7.977185E-1,4.9516392E-1,0E0,1.4385426E-1,9.254527E-2,1.2456403E-1,1.0928559E-1,1.0382366E-1,2.223525E-1,1.1745882E-1,1.0152403E-1,0E0,0E0,5.434054E-2,0E0,0E0,5.896908E-2,5.171323E-2,0E0,1.0122609E-1,0E0,2.0681477E-1,0E0,5.712533E-2,0E0,0E0,2.3432092E-1,0E0,0E0,0E0,0E0,0E0,0E0,0E0,8.344054E-2,6.4641E-2,0E0,0E0,0E0,0E0,0E0,0E0,0E0,0E0],"parents":[2147483647,0,0,1,1,2,2,3,3,4,4,5,5,6,6,8,8,9,9,10,10,11,11,12,12,13,13,14,14,15,15,18,18,21,21,22,22,24,24,26,26,28,28,31,31,39,39,40,40],"right_children":[2,4,6,8,10,12,14,-1,16,18,20,22,24,26,28,30,-1,-1,32,-1,-1,34,36,-1,38,-1,40,-1,42,-1,-1,44,-1,-1,-1,-1,-1,-1,-1,46,48,-1,-1,-1,-1,-1,-1,-1,-1],"split_conditions":[1.8321119E-1,6.662225E-2,3.5976017E-1,2.1319121E-2,1.1992005E-1,2.54497E-1,6.182545E-1,-3.744672E-3,7.038835E-2,8.794137E-2,1.359094E-1,2.2851433E-1,3.017988E-1,1.2458361E-1,9.896552E-1,9.856158E-1,-2.1855875E-3,-1.6267358E-3,7.773459E-3,-3.5846134E-4,4.6919068E-4,1.4807598E-1,9.615812E-2,3.4908974E-3,2.0603994E-1,6.726857E-4,4.3371087E-1,1.4937783E-3,9.9142855E-1,-1.6150719E-3,1.2420818E-2,3.954069E-2,-1.0220066E-3,-1.3497917E-4,1.6457398E-3,-4.764934E-4,2.747075E-3,8.629865E-4,4.9387896E-3,7.888349E-2,2.825134E-1,1.5782317E-2,5.5866097E-3,1.4721225E-2,-8.2854216E-4,8.097454E-3,5.401925E-3,4.9259798E-3,9.753951E-3],"split_indices":[167,167,167,160,167,167,167,0,59,97,34,167,167,41,26,5,0,0,23,0,0,77,111,0,77,0,167,0,159,0,0,18,0,0,0,0,0,0,0,17,98,0,0,0,0,0,0,0,0],"split_type":[0,0,0,0,0,0,0,0,0,0,0,0,0,0,0,0,0,0,0,0,0,0,0,0,0,0,0,0,0,0,0,0,0,0,0,0,0,0,0,0,0,0,0,0,0,0,0,0,0],"sum_hessian":[8.267E3,6.078E3,2.189E3,1.613E3,4.465E3,1.872E3,3.17E2,7.21E2,8.92E2,2.577E3,1.888E3,1.1E3,7.72E2,2.85E2,3.2E1,4E0,8.88E2,9.29E2,1.648E3,1.05E3,8.38E2,7.59E2,3.41E2,4.59E2,3.13E2,1.2E1,2.73E2,2E0,3E1,2E0,2E0,1.6E1,1.632E3,5.1E1,7.08E2,1.3E1,3.28E2,1.7E1,2.96E2,1.5E2,1.23E2,2.7E1,3E0,2E0,1.4E1,5.4E1,9.6E1,1.1E1,1.12E2],"tree_param":{"num_deleted":"0","num_feature":"168","num_nodes":"49","size_leaf_vector":"1"}},{"base_weights":[-8.101321E-5,-2.3518998E-2,6.84626E-2,-4.9648102E-2,-1.1035092E-2,5.0059695E-2,1.354638E-1,-3.5502664E-3,-3.774896E-2,-1.9483618E-2,4.659281E-3,3.2831922E-2,6.677545E-2,1.1216689E-1,1.9248487E-1,1.1081114E-2,-1.9415532E-3,-1.5412968E-3,-1.6355367E-2,-1.5982546E-4,6.5151847E-4,2.4457173E-5,1.7654052E-3,1.8151279E-3,7.0358045E-2,1.3368377E-1,9.30829E-2,1.5033296E-2,2.055595E-1,-1.0271329E-3,-4.610116E-4,4.191779E-3,3.169939E-3,3.7638005E-4,1.3709188E-1,9.668242E-2,-1.2368179E-3,-3.1020343E-3,3.8541579E-3,1.9022132E-1,1.6666247E-2,8.712711E-3,6.2180078E-3,1.389395E-3,5.1548528E-3,1.1019987E-2,7.817176E-3],"categories":[],"categories_nodes":[],"categories_segments":[],"categories_sizes":[],"default_left":[0,0,0,0,0,0,0,0,0,0,0,0,0,0,0,0,0,0,0,0,0,0,0,0,0,0,0,0,0,0,0,0,0,0,0,0,0,0,0,0,0,0,0,0,0,0,0],"id":13,"left_children":[1,3,5,7,9,11,13,-1,15,17,19,21,23,25,27,-1,-1,-1,29,-1,-1,-1,-1,-1,31,33,35,37,39,-1,-1,-1,-1,-1,41,43,-1,-1,-1,45,-1,-1,-1,-1,-1,-1,-1],"loss_changes":[1.3271501E1,2.0074978E0,2.5887184E0,4.8141193E-1,5.526113E-1,4.738307E-1,5.801821E-1,0E0,1.9640112E-1,9.225571E-2,9.3569085E-2,5.3336203E-2,9.036946E-2,1.2059975E-1,2.9852486E-1,0E0,0E0,0E0,5.9825182E-2,0E0,0E0,0E0,0E0,0E0,6.712413E-2,6.352377E-2,7.637632E-2,5.123041E-2,1.6656256E-1,0E0,0E0,0E0,0E0,0E0,5.195856E-2,5.7086706E-2,0E0,0E0,0E0,7.436061E-2,0E0,0E0,0E0,0E0,0E0,0E0,0E0],"parents":[2147483647,0,0,1,1,2,2,3,3,4,4,5,5,6,6,8,8,9,9,10,10,11,11,12,12,13,13,14,14,18,18,24,24,25,25,26,26,27,27,28,28,34,34,35,35,39,39],"right_children":[2,4,6,8,10,12,14,-1,16,18,20,22,24,26,28,-1,-1,-1,30,-1,-1,-1,-1,-1,32,34,36,38,40,-1,-1,-1,-1,-1,42,44,-1,-1,-1,46,-1,-1,-1,-1,-1,-1,-1],"split_conditions":[1.8787475E-1,7.528315E-2,3.3044636E-1,2.1319121E-2,1.3257828E-1,2.398401E-1,4.5103264E-1,-3.5502664E-3,6.553398E-2,7.4616924E-2,1.4990006E-1,1.4905018E-1,1.9120586E-1,3.7395892E-1,1.6655563E-1,1.1081114E-2,-1.9415532E-3,-1.5412968E-3,1.11925386E-1,-1.5982546E-4,6.5151847E-4,2.4457173E-5,1.7654052E-3,1.8151279E-3,1.0558253E-1,1.3790806E-1,9.861188E-1,1.4057295E-1,5.8512233E-2,-1.0271329E-3,-4.610116E-4,4.191779E-3,3.169939E-3,3.7638005E-4,1.41787315E-2,1.2924717E-1,-1.2368179E-3,-3.1020343E-3,3.8541579E-3,9.9004924E-1,1.6666247E-2,8.712711E-3,6.2180078E-3,1.389395E-3,5.1548528E-3,1.1019987E-2,7.817176E-3],"split_indices":[167,167,167,160,167,167,167,0,45,83,160,77,153,2,97,0,0,0,167,0,0,0,0,0,10,118,79,139,151,0,0,0,0,0,67,41,0,0,0,82,0,0,0,0,0,0,0],"split_type":[0,0,0,0,0,0,0,0,0,0,0,0,0,0,0,0,0,0,0,0,0,0,0,0,0,0,0,0,0,0,0,0,0,0,0,0,0,0,0,0,0,0,0,0,0,0,0],"sum_hessian":[8.259E3,6.155E3,2.104E3,1.989E3,4.166E3,1.652E3,4.52E2,7.3E2,1.259E3,2.708E3,1.458E3,8.15E2,8.37E2,3.23E2,1.29E2,2E0,1.257E3,6E2,2.108E3,7.47E2,7.11E2,4.8E1,7.67E2,8.8E1,7.49E2,1.49E2,1.74E2,9E0,1.2E2,1.367E3,7.41E2,2.85E2,4.64E2,4E0,1.45E2,1.69E2,5E0,4E0,5E0,1.09E2,1.1E1,3.9E1,1.06E2,1.2E1,1.57E2,5.9E1,5E1],"tree_param":{"num_deleted":"0","num_feature":"168","num_nodes":"47","size_leaf_vector":"1"}},{"base_weights":[-4.736662E-5,-1.9682249E-2,7.3787056E-2,-3.943005E-2,-2.3212524E-3,5.9336845E-2,1.5306805E-1,-3.3285187E-3,-3.0540723E-2,-1.2588719E-2,1.2043466E-2,4.510685E-2,8.0665596E-2,1.13957874E-1,1.832764E-1,1.201071E-1,-3.0857697E-2,-1.0381E-3,-4.491549E-4,5.5187703E-3,1.1545055E-3,2.5385205E-2,2.5088403E-3,4.7213244E-3,7.005258E-2,-2.9763333E-3,1.20476395E-1,7.629983E-3,2.4489723E-1,1.16345575E-2,-1.49497E-3,-1.9139888E-3,-1.2666055E-3,-3.9372366E-4,5.252363E-4,-6.514392E-4,1.8553606E-3,-2.3337542E-3,3.629682E-3,7.1643945E-3,4.578653E-3,2.8038254E-1,7.2639044E-3,3.4231634E-3,1.4735516E-2],"categories":[],"categories_nodes":[],"categories_segments":[],"categories_sizes":[],"default_left":[0,0,0,0,0,0,0,0,0,0,0,0,0,0,0,0,0,0,0,0,0,0,0,0,0,0,0,0,0,0,0,0,0,0,0,0,0,0,0,0,0,0,0,0,0],"id":14,"left_children":[1,3,5,7,9,11,13,-1,15,17,19,21,23,25,27,29,31,-1,-1,33,-1,35,-1,-1,37,-1,39,-1,41,-1,-1,-1,-1,-1,-1,-1,-1,-1,-1,-1,-1,43,-1,-1,-1],"loss_changes":[1.1980574E1,2.2379777E0,1.9797268E0,7.115097E-1,5.1267684E-1,4.4251823E-1,2.9456186E-1,0E0,1.1277032E-1,5.94531E-2,1.0149926E-1,7.585931E-2,7.161808E-2,1.4105666E-1,2.6282358E-1,8.876074E-2,9.150338E-2,0E0,0E0,5.829964E-2,0E0,7.099644E-2,0E0,0E0,6.3338995E-2,0E0,5.9745193E-2,0E0,1.3986373E-1,0E0,0E0,0E0,0E0,0E0,0E0,0E0,0E0,0E0,0E0,0E0,0E0,6.100917E-2,0E0,0E0,0E0],"parents":[2147483647,0,0,1,1,2,2,3,3,4,4,5,5,6,6,8,8,9,9,10,10,11,11,12,12,13,13,14,14,15,15,16,16,19,19,21,21,24,24,26,26,28,28,41,41],"right_children":[2,4,6,8,10,12,14,-1,16,18,20,22,24,26,28,30,32,-1,-1,34,-1,36,-1,-1,38,-1,40,-1,42,-1,-1,-1,-1,-1,-1,-1,-1,-1,-1,-1,-1,44,-1,-1,-1],"split_conditions":[2.0852765E-1,9.615812E-2,3.8307795E-1,2.4650233E-2,1.4390406E-1,2.7981347E-1,3.7652215E-1,-3.3285187E-3,7.038835E-2,9.1938704E-2,1.7854764E-1,2.148076E-1,3.3349976E-2,1.8655626E-1,5.216522E-1,1.3106796E-1,7.661559E-2,-1.0381E-3,-4.491549E-4,9.7268485E-2,1.1545055E-3,9.8866993E-1,2.5088403E-3,4.7213244E-3,8.8607594E-2,-2.9763333E-3,3.6174348E-1,7.629983E-3,9.905419E-1,1.16345575E-2,-1.49497E-3,-1.9139888E-3,-1.2666055E-3,-3.9372366E-4,5.252363E-4,-6.514392E-4,1.8553606E-3,-2.3337542E-3,3.629682E-3,7.1643945E-3,4.578653E-3,9.872906E-1,7.2639044E-3,3.4231634E-3,1.4735516E-2],"split_indices":[167,167,167,167,167,167,112,0,59,20,160,28,123,147,167,3,160,0,0,48,0,54,0,0,69,0,163,0,152,0,0,0,0,0,0,0,0,0,0,0,0,54,0,0,0],"split_type":[0,0,0,0,0,0,0,0,0,0,0,0,0,0,0,0,0,0,0,0,0,0,0,0,0,0,0,0,0,0,0,0,0,0,0,0,0,0,0,0,0,0,0,0,0],"sum_hessian":[8.262E3,6.527E3,1.735E3,3.053E3,3.474E3,1.469E3,2.66E2,7.7E2,2.283E3,2.026E3,1.448E3,8.83E2,5.86E2,1.18E2,1.48E2,4E0,2.279E3,6.47E2,1.379E3,9.02E2,5.46E2,1.63E2,7.2E2,2.65E2,3.21E2,4E0,1.14E2,9.9E1,4.9E1,2E0,2E0,1.041E3,1.238E3,2.41E2,6.61E2,3.7E1,1.26E2,4E0,3.17E2,6.5E1,4.9E1,3.5E1,1.4E1,2E0,3.3E1],"tree_param":{"num_deleted":"0","num_feature":"168","num_nodes":"45","size_leaf_vector":"1"}},{"base_weights":[3.0253702E-4,-2.159495E-2,6.0770236E-2,-4.9091585E-2,-1.2020507E-2,4.3542355E-2,1.20996095E-1,-3.204046E-3,-3.6442455E-2,-2.0165352E-2,1.0389726E-3,2.8930994E-2,6.0209952E-2,1.0049572E-1,1.748054E-1,-1.917425E-3,1.4619052E-2,-1.3152258E-3,-7.4840523E-4,-4.990393E-3,4.817352E-4,2.6937719E-3,1.3020723E-3,-3.320033E-3,6.0927834E-2,1.37193E-1,9.083833E-2,-4.7007043E-4,1.8510604E-1,-1.0398232E-3,1.295589E-2,-6.352795E-4,7.404215E-5,7.203754E-2,5.320331E-2,2.5611366E-3,7.4576894E-3,6.933671E-2,1.0505933E-1,2.0884062E-1,7.055342E-3,3.5408577E-3,8.004855E-3,1.9618005E-3,3.0837764E-3,-6.973592E-4,3.8726768E-3,2.212296E-3,5.5881036E-3,3.5588287E-3,1.0993331E-2],"categories":[],"categories_nodes":[],"categories_segments":[],"categories_sizes":[],"default_left":[0,0,0,0,0,0,0,0,0,0,0,0,0,0,0,0,0,0,0,0,0,0,0,0,0,0,0,0,0,0,0,0,0,0,0,0,0,0,0,0,0,0,0,0,0,0,0,0,0,0,0],"id":15,"left_children":[1,3,5,7,9,11,13,-1,15,17,19,21,23,25,27,-1,29,-1,-1,31,-1,-1,-1,-1,33,35,37,-1,39,-1,-1,-1,-1,41,43,-1,-1,45,47,49,-1,-1,-1,-1,-1,-1,-1,-1,-1,-1,-1],"loss_changes":[1.0917117E1,1.5929527E0,2.2690716E0,2.777171E-1,4.777171E-1,4.1373086E-1,5.196481E-1,0E0,6.024611E-2,8.6091995E-2,8.8208474E-2,6.9882214E-2,7.585454E-2,1.13349676E-1,2.5391245E-1,0E0,2.0020255E-1,0E0,0E0,4.9180083E-2,0E0,0E0,0E0,0E0,6.41346E-2,5.5171132E-2,7.955551E-2,0E0,1.0793114E-1,0E0,0E0,0E0,0E0,4.8015952E-2,4.9977183E-2,0E0,0E0,6.967783E-2,4.977429E-2,7.671523E-2,0E0,0E0,0E0,0E0,0E0,0E0,0E0,0E0,0E0,0E0,0E0],"parents":[2147483647,0,0,1,1,2,2,3,3,4,4,5,5,6,6,8,8,9,9,10,10,11,11,12,12,13,13,14,14,16,16,19,19,24,24,25,25,26,26,28,28,33,33,34,34,37,37,38,38,39,39],"right_children":[2,4,6,8,10,12,14,-1,16,18,20,22,24,26,28,-1,30,-1,-1,32,-1,-1,-1,-1,34,36,38,-1,40,-1,-1,-1,-1,42,44,-1,-1,46,48,50,-1,-1,-1,-1,-1,-1,-1,-1,-1,-1,-1],"split_conditions":[1.8321119E-1,6.528981E-2,3.2511657E-1,2.4650233E-2,1.23917386E-1,2.398401E-1,4.5103264E-1,-3.204046E-3,1.9720186E-1,9.993338E-2,1.4390406E-1,1.8272592E-2,1.2884425E-1,1.6275587E-2,9.884729E-1,-1.917425E-3,5.431852E-2,-1.3152258E-3,-7.4840523E-4,1.2991339E-1,4.817352E-4,2.6937719E-3,1.3020723E-3,-3.320033E-3,1.1165048E-1,2.893327E-1,1.2742719E-1,-4.7007043E-4,9.905419E-1,-1.0398232E-3,1.295589E-2,-6.352795E-4,7.404215E-5,1.7597087E-1,2.1518987E-1,2.5611366E-3,7.4576894E-3,2.4305893E-1,1.6255829E-1,9.88867E-1,7.055342E-3,3.5408577E-3,8.004855E-3,1.9618005E-3,3.0837764E-3,-6.973592E-4,3.8726768E-3,2.212296E-3,5.5881036E-3,3.5588287E-3,1.0993331E-2],"split_indices":[167,167,167,160,167,167,167,0,83,13,6,123,154,67,33,0,11,0,0,160,0,0,0,0,3,112,101,0,82,0,0,0,0,143,13,0,0,77,118,33,0,0,0,0,0,0,0,0,0,0,0],"split_type":[0,0,0,0,0,0,0,0,0,0,0,0,0,0,0,0,0,0,0,0,0,0,0,0,0,0,0,0,0,0,0,0,0,0,0,0,0,0,0,0,0,0,0,0,0,0,0,0,0,0,0],"sum_hessian":[8.243E3,6.052E3,2.191E3,1.562E3,4.49E3,1.705E3,4.86E2,7.35E2,8.27E2,2.765E3,1.725E3,9.1E2,7.95E2,3.54E2,1.32E2,8.05E2,2.2E1,1.33E3,1.435E3,1.008E3,7.17E2,1.05E2,8.05E2,4E0,7.91E2,7.1E1,2.83E2,7E0,1.25E2,2E1,2E0,4.64E2,5.44E2,3.21E2,4.7E2,8E0,6.3E1,1.15E2,1.68E2,8E1,4.5E1,3.15E2,6E0,1.65E2,3.05E2,9E0,1.06E2,1.4E1,1.54E2,5E0,7.5E1],"tree_param":{"num_deleted":"0","num_feature":"168","num_nodes":"51","size_leaf_vector":"1"}},{"base_weights":[-1.4664E-5,-2.0490544E-2,5.4569438E-2,-4.768024E-2,-1.1836123E-2,3.862247E-2,9.447618E-2,-3.0738283E-3,-1.8015244E-3,-1.8316267E-2,9.0757E-4,2.5199782E-2,5.01919E-2,1.5269203E-1,7.8168444E-2,-2.5812373E-2,-6.769162E-4,1.1247299E-2,4.7308565E-4,5.715167E-4,1.588173E-3,5.7587396E-2,3.1679697E-2,3.7425417E-3,1.7850275E-1,6.867374E-2,1.2145653E-1,3.3991035E-2,-1.3422103E-3,-3.281804E-4,4.5717758E-4,2.8747989E-2,3.129943E-3,3.598012E-5,2.0941675E-3,2.3080261E-1,7.404209E-3,-1.0551574E-3,7.3031776E-2,7.3283645E-3,4.4561727E-3,1.2633189E-2,-1.149602E-3,-1.4454775E-3,1.9894755E-3,3.449009E-3,1.2298676E-2,5.2414145E-3,3.3739589E-3],"categories":[],"categories_nodes":[],"categories_segments":[],"categories_sizes":[],"default_left":[0,0,0,0,0,0,0,0,0,0,0,0,0,0,0,0,0,0,0,0,0,0,0,0,0,0,0,0,0,0,0,0,0,0,0,0,0,0,0,0,0,0,0,0,0,0,0,0,0],"id":16,"left_children":[1,3,5,7,9,11,13,-1,-1,15,17,19,21,23,25,27,-1,-1,29,-1,-1,31,33,-1,35,37,39,41,-1,-1,-1,43,-1,-1,-1,45,-1,-1,47,-1,-1,-1,-1,-1,-1,-1,-1,-1,-1],"loss_changes":[9.1938505E0,1.4070666E0,1.4244132E0,2.2531891E-1,3.748517E-1,2.4797988E-1,5.9565973E-1,0E0,0E0,1.1136043E-1,1.4699607E-1,6.345454E-2,1.1605263E-1,2.6954198E-1,1.9798493E-1,4.9960494E-2,0E0,0E0,9.097116E-2,0E0,0E0,7.267952E-2,7.419349E-2,0E0,1.4209366E-1,1.6300845E-1,5.6470394E-2,1.7661855E-1,0E0,0E0,0E0,4.9372137E-2,0E0,0E0,0E0,5.767083E-2,0E0,0E0,7.034063E-2,0E0,0E0,0E0,0E0,0E0,0E0,0E0,0E0,0E0,0E0],"parents":[2147483647,0,0,1,1,2,2,3,3,4,4,5,5,6,6,9,9,10,10,11,11,12,12,13,13,14,14,15,15,18,18,21,21,22,22,24,24,25,25,26,26,27,27,31,31,35,35,38,38],"right_children":[2,4,6,8,10,12,14,-1,-1,16,18,20,22,24,26,28,-1,-1,30,-1,-1,32,34,-1,36,38,40,42,-1,-1,-1,44,-1,-1,-1,46,-1,-1,48,-1,-1,-1,-1,-1,-1,-1,-1,-1,-1],"split_conditions":[1.7988008E-1,6.062625E-2,3.017988E-1,1.1325783E-2,1.2658228E-1,2.2451699E-1,1.6275587E-2,-3.0738283E-3,-1.8015244E-3,8.994004E-2,2.8647568E-2,1.4057295E-1,1.4805825E-1,3.326839E-1,4.3371087E-1,1.3881177E-2,-6.769162E-4,1.1247299E-2,9.899507E-1,5.715167E-4,1.588173E-3,1.2924717E-1,1.6922052E-1,3.7425417E-3,5.6179776E-4,3.12226E-1,1.1235955E-3,4.2436346E-2,-1.3422103E-3,-3.281804E-4,4.5717758E-4,9.8876846E-1,3.129943E-3,3.598012E-5,2.0941675E-3,1.6657412E-1,7.404209E-3,-1.0551574E-3,8.009709E-2,7.3283645E-3,4.4561727E-3,1.2633189E-2,-1.149602E-3,-1.4454775E-3,1.9894755E-3,3.449009E-3,1.2298676E-2,5.2414145E-3,3.3739589E-3],"split_indices":[160,160,160,139,160,160,60,0,0,13,153,13,17,112,76,23,0,0,117,0,0,13,6,0,134,161,162,25,0,0,0,19,0,0,0,16,0,0,10,0,0,0,0,0,0,0,0,0,0],"split_type":[0,0,0,0,0,0,0,0,0,0,0,0,0,0,0,0,0,0,0,0,0,0,0,0,0,0,0,0,0,0,0,0,0,0,0,0,0,0,0,0,0,0,0,0,0,0,0,0,0],"sum_hessian":[8.224E3,5.981E3,2.243E3,1.443E3,4.538E3,1.604E3,6.39E2,6.94E2,7.49E2,3.008E3,1.53E3,7.44E2,8.6E2,1.38E2,5.01E2,1.195E3,1.813E3,2E0,1.528E3,2.29E2,5.15E2,6.13E2,2.47E2,3.5E1,1.03E2,4.13E2,8.8E1,1.3E1,1.182E3,8.43E2,6.85E2,7.9E1,5.34E2,5.9E1,1.88E2,3.7E1,6.6E1,1.9E1,3.94E2,5E1,3.8E1,2E0,1.1E1,1.2E1,6.7E1,3E0,3.4E1,6.6E1,3.28E2],"tree_param":{"num_deleted":"0","num_feature":"168","num_nodes":"49","size_leaf_vector":"1"}},{"base_weights":[1.8806949E-4,-1.7205434E-2,6.2464815E-2,-3.7245862E-2,-4.732515E-3,5.0181974E-2,1.3511848E-1,-2.8810338E-3,-2.9000333E-2,-1.3178413E-2,8.534093E-3,3.831924E-2,6.986652E-2,1.2228273E-1,2.1684203E-1,7.150553E-3,-1.4878948E-3,-8.41078E-4,-6.0667447E-3,2.856436E-3,8.9771976E-4,-7.6301367E-4,3.9755024E-2,2.921634E-3,3.9704293E-3,7.5405873E-3,9.8998964E-2,4.2836156E-4,2.2960183E-1,6.386666E-2,-3.6133113E-4,-2.5168946E-4,5.082698E-4,2.3130204E-3,2.7540125E-2,-6.5536017E-4,1.06830314E-1,1.2768054E-2,4.570198E-3,1.3374107E-2,-1.302079E-4,7.9243246E-4,2.1262132E-3,2.140739E-3,5.87577E-3],"categories":[],"categories_nodes":[],"categories_segments":[],"categories_sizes":[],"default_left":[0,0,0,0,0,0,0,0,0,0,0,0,0,0,0,0,0,0,0,0,0,0,0,0,0,0,0,0,0,0,0,0,0,0,0,0,0,0,0,0,0,0,0,0,0],"id":17,"left_children":[1,3,5,7,9,11,13,-1,15,17,19,21,23,25,27,-1,-1,-1,29,31,-1,-1,33,-1,-1,-1,35,-1,37,39,-1,-1,-1,-1,41,-1,43,-1,-1,-1,-1,-1,-1,-1,-1],"loss_changes":[8.940813E0,1.6125828E0,1.6013126E0,3.9900017E-1,4.458411E-1,3.5763288E-1,2.4621964E-1,0E0,1.1523223E-1,5.9136093E-2,8.071106E-2,7.456255E-2,5.5588484E-2,1.257782E-1,8.846271E-2,0E0,0E0,0E0,5.9540115E-2,5.386087E-2,0E0,0E0,6.6592455E-2,0E0,0E0,0E0,1.100831E-1,0E0,7.746732E-2,1.6026261E-1,0E0,0E0,0E0,0E0,5.240734E-2,0E0,6.37846E-2,0E0,0E0,0E0,0E0,0E0,0E0,0E0,0E0],"parents":[2147483647,0,0,1,1,2,2,3,3,4,4,5,5,6,6,8,8,9,9,10,10,11,11,12,12,13,13,14,14,18,18,19,19,22,22,26,26,28,28,29,29,34,34,36,36],"right_children":[2,4,6,8,10,12,14,-1,16,18,20,22,24,26,28,-1,-1,-1,30,32,-1,-1,34,-1,-1,-1,36,-1,38,40,-1,-1,-1,-1,42,-1,44,-1,-1,-1,-1,-1,-1,-1,-1],"split_conditions":[2.0453031E-1,8.5276484E-2,3.8307795E-1,2.1319121E-2,1.392405E-1,2.7981347E-1,6.182545E-1,-2.8810338E-3,6.553398E-2,9.898522E-1,1.6788808E-1,1.8217243E-1,2.4983345E-1,8.252427E-2,3.4348477E-2,7.150553E-3,-1.4878948E-3,-8.41078E-4,1.3881177E-2,9.892611E-1,8.9771976E-4,-7.6301367E-4,1.4684466E-1,2.921634E-3,3.9704293E-3,7.5405873E-3,1.4457029E-1,4.2836156E-4,9.3920046E-1,5.6179776E-4,-3.6133113E-4,-2.5168946E-4,5.082698E-4,2.3130204E-3,2.883585E-1,-6.5536017E-4,1.5713492E-1,1.2768054E-2,4.570198E-3,1.3374107E-2,-1.302079E-4,7.9243246E-4,2.1262132E-3,2.140739E-3,5.87577E-3],"split_indices":[167,167,167,160,167,167,167,0,45,124,13,154,48,164,151,0,0,0,23,26,0,0,24,0,0,0,118,0,37,99,0,0,0,0,28,0,58,0,0,0,0,0,0,0,0],"split_type":[0,0,0,0,0,0,0,0,0,0,0,0,0,0,0,0,0,0,0,0,0,0,0,0,0,0,0,0,0,0,0,0,0,0,0,0,0,0,0,0,0,0,0,0,0],"sum_hessian":[8.252E3,6.451E3,1.801E3,2.474E3,3.977E3,1.542E3,2.59E2,7.3E2,1.744E3,2.43E3,1.547E3,9.64E2,5.78E2,2.26E2,3.3E1,3E0,1.741E3,1.639E3,7.91E2,9.57E2,5.9E2,2.5E1,9.39E2,2.41E2,3.37E2,1.03E2,1.23E2,2E0,3.1E1,1.1E1,7.8E2,4.58E2,4.99E2,6.31E2,3.08E2,8E0,1.15E2,2.6E1,5E0,2E0,9E0,1.7E2,1.38E2,1.5E1,1E2],"tree_param":{"num_deleted":"0","num_feature":"168","num_nodes":"45","size_leaf_vector":"1"}},{"base_weights":[1.0552494E-4,-1.6397057E-2,5.9364736E-2,-3.5514016E-2,-4.514222E-3,4.6769317E-2,1.2415964E-1,-2.759445E-3,-2.7934164E-2,-1.1872392E-2,9.213716E-3,3.3166144E-2,6.1846074E-2,1.1179554E-1,2.1210659E-1,6.878908E-3,-2.8287815E-2,-9.5628586E-4,-8.009249E-3,2.6062598E-5,7.269324E-4,1.6358847E-2,1.943235E-3,7.7652544E-2,5.5265345E-2,7.0019225E-3,9.134956E-2,1.7520876E-3,1.1531996E-2,-1.7235767E-3,-1.1392003E-3,-6.408481E-4,-1.8828418E-3,-3.480877E-5,1.8298085E-3,-5.1852764E-4,4.068113E-3,2.161808E-3,3.2810518E-3,-9.731721E-5,4.9676904E-3,4.8475615E-3,-1.5031271E-4],"categories":[],"categories_nodes":[],"categories_segments":[],"categories_sizes":[],"default_left":[0,0,0,0,0,0,0,0,0,0,0,0,0,0,0,0,0,0,0,0,0,0,0,0,0,0,0,0,0,0,0,0,0,0,0,0,0,0,0,0,0,0,0],"id":18,"left_children":[1,3,5,7,9,11,13,-1,15,17,19,21,23,25,27,-1,29,-1,31,-1,-1,33,-1,35,37,-1,39,-1,-1,-1,-1,-1,41,-1,-1,-1,-1,-1,-1,-1,-1,-1,-1],"loss_changes":[8.099211E0,1.4714059E0,1.4664712E0,3.553896E-1,4.0375537E-1,3.080473E-1,2.9489136E-1,0E0,1.0668385E-1,7.028109E-2,6.2339023E-2,6.899828E-2,7.018542E-2,1.273768E-1,8.880782E-2,0E0,5.8230042E-2,0E0,4.7730573E-2,0E0,0E0,6.4041086E-2,0E0,4.947281E-2,5.816114E-2,0E0,9.363353E-2,0E0,0E0,0E0,0E0,0E0,7.7023424E-2,0E0,0E0,0E0,0E0,0E0,0E0,0E0,0E0,0E0,0E0],"parents":[2147483647,0,0,1,1,2,2,3,3,4,4,5,5,6,6,8,8,9,9,10,10,11,11,12,12,13,13,14,14,16,16,18,18,21,21,23,23,24,24,26,26,32,32],"right_children":[2,4,6,8,10,12,14,-1,16,18,20,22,24,26,28,-1,30,-1,32,-1,-1,34,-1,36,38,-1,40,-1,-1,-1,-1,-1,42,-1,-1,-1,-1,-1,-1,-1,-1,-1,-1],"split_conditions":[2.0453031E-1,8.5276484E-2,3.7175217E-1,1.1325783E-2,1.4390406E-1,2.6249167E-1,6.182545E-1,-2.759445E-3,6.553398E-2,9.7268485E-2,1.23917386E-1,2.2990745E-1,9.1019414E-2,8.252427E-2,1.4797334E-1,6.878908E-3,8.594271E-2,-9.5628586E-4,9.892895E-1,2.6062598E-5,7.269324E-4,9.9083745E-1,1.943235E-3,1.15256496E-1,3.1271312E-1,7.0019225E-3,1.4457029E-1,1.7520876E-3,1.1531996E-2,-1.7235767E-3,-1.1392003E-3,-6.408481E-4,7.773459E-3,-3.480877E-5,1.8298085E-3,-5.1852764E-4,4.068113E-3,2.161808E-3,3.2810518E-3,-9.731721E-5,4.9676904E-3,4.8475615E-3,-1.5031271E-4],"split_indices":[167,167,167,167,167,167,167,0,45,160,41,7,10,164,114,0,83,0,117,0,0,26,0,90,14,0,118,0,0,0,0,0,23,0,0,0,0,0,0,0,0,0,0],"split_type":[0,0,0,0,0,0,0,0,0,0,0,0,0,0,0,0,0,0,0,0,0,0,0,0,0,0,0,0,0,0,0,0,0,0,0,0,0,0,0,0,0,0,0],"sum_hessian":[8.28E3,6.477E3,1.803E3,2.482E3,3.995E3,1.511E3,2.92E2,7.07E2,1.775E3,2.601E3,1.394E3,7.96E2,7.15E2,2.58E2,3.4E1,3E0,1.772E3,9.23E2,1.678E3,5.18E2,8.76E2,1.89E2,6.07E2,2.07E2,5.08E2,1.1E2,1.48E2,3E0,3.1E1,8.88E2,8.84E2,9.54E2,7.24E2,1.02E2,8.7E1,6E0,2.01E2,2.21E2,2.87E2,1E1,1.38E2,7E0,7.17E2],"tree_param":{"num_deleted":"0","num_feature":"168","num_nodes":"43","size_leaf_vector":"1"}},{"base_weights":[1.9785778E-4,-1.7572297E-2,4.7354307E-2,-3.971754E-2,-9.687904E-3,3.2042947E-2,7.8468375E-2,-2.6359928E-3,-1.5145626E-3,-1.6159201E-2,4.097978E-5,2.2073036E-2,4.158503E-2,1.3017872E-1,6.6287175E-2,-1.3878051E-3,-6.489853E-4,1.0674973E-2,-3.167807E-4,2.348481E-3,9.641943E-4,6.3506566E-2,3.4979302E-2,1.6987287E-3,1.4495462E-1,3.420688E-2,7.525428E-2,6.9615967E-4,-1.8808417E-4,7.367963E-2,1.6108665E-3,2.0790929E-2,2.144951E-3,1.9498652E-1,6.123007E-3,-1.9716132E-3,2.1131884E-3,3.432482E-3,1.1110465E-1,3.2026116E-3,6.025336E-3,5.925978E-5,1.8546579E-3,1.1163609E-2,5.7026995E-3,2.469554E-3,6.7831133E-3],"categories":[],"categories_nodes":[],"categories_segments":[],"categories_sizes":[],"default_left":[0,0,0,0,0,0,0,0,0,0,0,0,0,0,0,0,0,0,0,0,0,0,0,0,0,0,0,0,0,0,0,0,0,0,0,0,0,0,0,0,0,0,0,0,0,0,0],"id":19,"left_children":[1,3,5,7,9,11,13,-1,-1,15,17,19,21,23,25,-1,-1,-1,27,-1,-1,29,31,-1,33,35,37,-1,-1,39,-1,41,-1,43,-1,-1,-1,-1,45,-1,-1,-1,-1,-1,-1,-1,-1],"loss_changes":[6.9225264E0,1.047226E0,1.0746231E0,1.8897152E-1,2.7865496E-1,1.4339983E-1,4.6064186E-1,0E0,0E0,9.962952E-2,1.3341881E-1,5.4016024E-2,1.09859824E-1,1.964829E-1,1.714642E-1,0E0,0E0,0E0,8.44353E-2,0E0,0E0,5.506736E-2,6.1520636E-2,0E0,1.2336564E-1,7.524073E-2,1.1920023E-1,0E0,0E0,5.589336E-2,0E0,6.3917555E-2,0E0,5.4748416E-2,0E0,0E0,0E0,0E0,1.0724455E-1,0E0,0E0,0E0,0E0,0E0,0E0,0E0,0E0],"parents":[2147483647,0,0,1,1,2,2,3,3,4,4,5,5,6,6,9,9,10,10,11,11,12,12,13,13,14,14,18,18,21,21,22,22,24,24,25,25,26,26,29,29,31,31,33,33,38,38],"right_children":[2,4,6,8,10,12,14,-1,-1,16,18,20,22,24,26,-1,-1,-1,28,-1,-1,30,32,-1,34,36,38,-1,-1,40,-1,42,-1,44,-1,-1,-1,-1,46,-1,-1,-1,-1,-1,-1,-1,-1],"split_conditions":[1.7988008E-1,6.528981E-2,2.8980678E-1,1.1325783E-2,1.212525E-1,2.2451699E-1,1.6275587E-2,-2.6359928E-3,-1.5145626E-3,7.261825E-2,2.8647568E-2,1.8671991E-2,9.3446605E-2,3.000487E-1,2.0253165E-1,-1.3878051E-3,-6.489853E-4,1.0674973E-2,2.7858213E-2,2.348481E-3,9.641943E-4,1.16504855E-1,1.8454364E-1,1.6987287E-3,5.6179776E-4,9.884729E-1,4.3371087E-1,6.9615967E-4,-1.8808417E-4,5.4118823E-2,1.6108665E-3,9.9044335E-1,2.144951E-3,8.009709E-2,6.123007E-3,-1.9716132E-3,2.1131884E-3,3.432482E-3,3.7652215E-1,3.2026116E-3,6.025336E-3,5.925978E-5,1.8546579E-3,1.1163609E-2,5.7026995E-3,2.469554E-3,6.7831133E-3],"split_indices":[160,160,160,139,160,160,60,0,0,20,153,123,52,112,27,0,0,0,144,0,0,10,20,0,134,117,160,0,0,67,0,40,0,164,0,0,0,0,98,0,0,0,0,0,0,0,0],"split_type":[0,0,0,0,0,0,0,0,0,0,0,0,0,0,0,0,0,0,0,0,0,0,0,0,0,0,0,0,0,0,0,0,0,0,0,0,0,0,0,0,0,0,0,0,0,0,0],"sum_hessian":[8.259E3,5.999E3,2.26E3,1.574E3,4.425E3,1.516E3,7.44E2,6.96E2,8.78E2,2.657E3,1.768E3,7.43E2,7.73E2,1.4E2,6.04E2,6.08E2,2.049E3,2E0,1.766E3,8.1E1,6.62E2,1.77E2,5.96E2,1.9E1,1.21E2,1.33E2,4.71E2,3.43E2,1.423E3,1.33E2,4.4E1,2.05E2,3.91E2,3.7E1,8.4E1,1.2E1,1.21E2,3.92E2,7.9E1,1.1E2,2.3E1,9.2E1,1.13E2,2.7E1,1E1,2.2E1,5.7E1],"tree_param":{"num_deleted":"0","num_feature":"168","num_nodes":"47","size_leaf_vector":"1"}},{"base_weights":[-2.4262485E-5,-1.6784849E-2,4.5030605E-2,-3.9116897E-2,-9.659026E-3,3.0398026E-2,7.455129E-2,-2.8605204E-2,-2.477154E-3,-1.455698E-2,1.4614088E-3,2.1056738E-2,4.1249953E-2,1.2999538E-1,6.445617E-2,2.3381482E-3,-1.4958881E-3,-1.2501493E-3,-1.1317031E-2,-3.6064725E-4,7.879501E-3,1.9675987E-4,2.4913285E-2,2.4835657E-2,2.5015064E-3,9.817312E-3,5.1863072E-3,5.449595E-2,1.0042575E-1,-6.754731E-4,6.9478425E-5,9.401597E-3,3.5332068E-4,1.686312E-3,7.005843E-4,-1.2189855E-4,1.9487316E-3,-9.702925E-4,5.7482347E-2,4.003603E-3,1.5926896E-1,2.955436E-3,-2.9844982E-3,6.120605E-3,1.0891181E-2],"categories":[],"categories_nodes":[],"categories_segments":[],"categories_sizes":[],"default_left":[0,0,0,0,0,0,0,0,0,0,0,0,0,0,0,0,0,0,0,0,0,0,0,0,0,0,0,0,0,0,0,0,0,0,0,0,0,0,0,0,0,0,0,0,0],"id":20,"left_children":[1,3,5,7,9,11,13,15,-1,17,19,21,23,25,27,-1,-1,-1,29,-1,31,-1,33,35,-1,-1,-1,37,39,-1,-1,-1,-1,-1,-1,-1,-1,-1,41,-1,43,-1,-1,-1,-1],"loss_changes":[6.2246695E0,9.557004E-1,9.6317244E-1,1.4809418E-1,2.4817464E-1,1.5078235E-1,4.0580988E-1,5.0088048E-2,0E0,1.03469074E-1,7.683239E-2,5.328107E-2,9.104824E-2,1.7924154E-1,2.1951771E-1,0E0,0E0,0E0,6.1431408E-2,0E0,1.2693876E-1,0E0,6.063494E-2,8.590789E-2,0E0,0E0,0E0,1.0975802E-1,1.572944E-1,0E0,0E0,0E0,0E0,0E0,0E0,0E0,0E0,0E0,5.1247478E-2,0E0,4.9010396E-2,0E0,0E0,0E0,0E0],"parents":[2147483647,0,0,1,1,2,2,3,3,4,4,5,5,6,6,7,7,9,9,10,10,11,11,12,12,13,13,14,14,18,18,20,20,22,22,23,23,27,27,28,28,38,38,40,40],"right_children":[2,4,6,8,10,12,14,16,-1,18,20,22,24,26,28,-1,-1,-1,30,-1,32,-1,34,36,-1,-1,-1,38,40,-1,-1,-1,-1,-1,-1,-1,-1,-1,42,-1,44,-1,-1,-1,-1],"split_conditions":[1.7988008E-1,6.062625E-2,2.8980678E-1,2.5280898E-3,1.3057962E-1,2.2851433E-1,1.48776835E-2,7.524272E-2,-2.477154E-3,7.4616924E-2,9.8876846E-1,1.392405E-1,1.8987341E-1,5.6179776E-4,3.5976017E-1,2.3381482E-3,-1.4958881E-3,-1.2501493E-3,2.8007793E-1,-3.6064725E-4,4.2638242E-2,1.9675987E-4,1.6666667E-3,9.906404E-1,2.5015064E-3,9.817312E-3,5.1863072E-3,1.0859427E-1,4.8434377E-1,-6.754731E-4,6.9478425E-5,9.401597E-3,3.5332068E-4,1.686312E-3,7.005843E-4,-1.2189855E-4,1.9487316E-3,-9.702925E-4,6.66001E-2,4.003603E-3,5.0024964E-2,2.955436E-3,-2.9844982E-3,6.120605E-3,1.0891181E-2],"split_indices":[160,160,160,92,160,160,67,38,0,83,40,139,20,141,6,0,0,0,14,0,139,0,162,26,0,0,0,6,160,0,0,0,0,0,0,0,0,0,67,0,116,0,0,0,0],"split_type":[0,0,0,0,0,0,0,0,0,0,0,0,0,0,0,0,0,0,0,0,0,0,0,0,0,0,0,0,0,0,0,0,0,0,0,0,0,0,0,0,0,0,0,0,0],"sum_hessian":[8.241E3,6.007E3,2.234E3,1.452E3,4.555E3,1.495E3,7.39E2,7.02E2,7.5E2,3.162E3,1.393E3,8.05E2,6.9E2,1.12E2,6.27E2,8E0,6.94E2,7.65E2,2.397E3,5.96E2,7.97E2,1.48E2,6.57E2,2.3E2,4.6E2,3.2E1,8E1,4.93E2,1.34E2,2.068E3,3.29E2,3E0,7.94E2,3.73E2,2.84E2,7.7E1,1.53E2,1.9E1,4.74E2,1E2,3.4E1,4.71E2,3E0,2.2E1,1.2E1],"tree_param":{"num_deleted":"0","num_feature":"168","num_nodes":"45","size_leaf_vector":"1"}},{"base_weights":[-4.9500813E-5,-1.5884174E-2,4.563378E-2,-3.3644274E-2,-7.373508E-3,3.6552645E-2,1.119786E-1,-2.3770665E-3,-2.5934314E-2,-1.2722252E-2,2.9804574E-3,2.3714222E-2,5.150826E-2,1.01407446E-1,1.777085E-1,1.1438477E-1,-1.3409575E-3,-9.417959E-4,-4.639671E-4,-5.1730603E-4,2.96015E-4,9.753631E-4,1.8668293E-3,2.2661462E-3,6.29479E-2,-3.0674036E-3,1.0390266E-1,3.349205E-5,1.8875329E-1,-1.2071482E-3,1.0863649E-2,-1.4244673E-3,6.5388806E-2,1.1211419E-1,2.7464975E-3,1.06220655E-2,4.253444E-3,4.1135624E-3,2.718202E-3,4.484314E-3,6.4925835E-3],"categories":[],"categories_nodes":[],"categories_segments":[],"categories_sizes":[],"default_left":[0,0,0,0,0,0,0,0,0,0,0,0,0,0,0,0,0,0,0,0,0,0,0,0,0,0,0,0,0,0,0,0,0,0,0,0,0,0,0,0,0],"id":21,"left_children":[1,3,5,7,9,11,13,-1,15,17,19,21,23,25,27,29,-1,-1,-1,-1,-1,-1,-1,-1,31,-1,33,-1,35,-1,-1,-1,37,39,-1,-1,-1,-1,-1,-1,-1],"loss_changes":[5.963546E0,9.2509365E-1,1.2743831E0,2.0188665E-1,2.2931404E-1,3.5744643E-1,1.5916324E-1,0E0,9.813899E-2,5.692804E-2,5.336665E-2,5.8288395E-2,6.393647E-2,9.601092E-2,6.636059E-2,7.428068E-2,0E0,0E0,0E0,0E0,0E0,0E0,0E0,0E0,7.252848E-2,0E0,8.326244E-2,0E0,5.263698E-2,0E0,0E0,0E0,5.3153515E-2,5.9497595E-2,0E0,0E0,0E0,0E0,0E0,0E0,0E0],"parents":[2147483647,0,0,1,1,2,2,3,3,4,4,5,5,6,6,8,8,9,9,10,10,11,11,12,12,13,13,14,14,15,15,24,24,26,26,28,28,32,32,33,33],"right_children":[2,4,6,8,10,12,14,-1,16,18,20,22,24,26,28,30,-1,-1,-1,-1,-1,-1,-1,-1,32,-1,34,-1,36,-1,-1,-1,38,40,-1,-1,-1,-1,-1,-1,-1],"split_conditions":[1.865423E-1,7.528315E-2,3.8307795E-1,2.1319121E-2,1.332445E-1,2.5249833E-1,6.182545E-1,-2.3770665E-3,7.038835E-2,9.260493E-2,8.461026E-2,2.5516322E-1,3.0912724E-1,1.8655626E-1,1.9120586E-1,6.595603E-2,-1.3409575E-3,-9.417959E-4,-4.639671E-4,-5.1730603E-4,2.96015E-4,9.753631E-4,1.8668293E-3,2.2661462E-3,1.01265825E-1,-3.0674036E-3,1.5776698E-1,3.349205E-5,9.3920046E-1,-1.2071482E-3,1.0863649E-2,-1.4244673E-3,1.0800971E-1,3.2511657E-1,2.7464975E-3,1.06220655E-2,4.253444E-3,4.1135624E-3,2.718202E-3,4.484314E-3,6.4925835E-3],"split_indices":[167,167,167,160,167,167,167,0,59,111,41,90,167,147,76,6,0,0,0,0,0,0,0,0,69,0,24,0,37,0,0,0,24,132,0,0,0,0,0,0,0],"split_type":[0,0,0,0,0,0,0,0,0,0,0,0,0,0,0,0,0,0,0,0,0,0,0,0,0,0,0,0,0,0,0,0,0,0,0,0,0,0,0,0,0],"sum_hessian":[8.242E3,6.121E3,2.121E3,1.982E3,4.139E3,1.867E3,2.54E2,7.26E2,1.256E3,2.729E3,1.41E3,1.006E3,8.61E2,2.21E2,3.3E1,4E0,1.252E3,1.029E3,1.7E3,2.51E2,1.159E3,7.53E2,2.53E2,5.44E2,3.17E2,3E0,2.18E2,2E0,3.1E1,2E0,2E0,8E0,3.09E2,1.86E2,3.2E1,2.5E1,6E0,1.29E2,1.8E2,7.8E1,1.08E2],"tree_param":{"num_deleted":"0","num_feature":"168","num_nodes":"41","size_leaf_vector":"1"}},{"base_weights":[-1.4654615E-4,-1.2868521E-2,5.16272E-2,-2.5800603E-2,3.6051354E-4,4.1213807E-2,1.0507637E-1,-2.0991417E-3,-1.9222053E-2,-5.2393475E-3,6.282102E-4,3.1975355E-2,5.535655E-2,9.523261E-2,1.6886559E-1,-1.3454306E-3,-8.2913914E-4,-4.6727087E-4,5.1931616E-5,1.9639255E-3,2.2406274E-2,2.9449835E-3,1.0751416E-3,-1.6931801E-4,9.924397E-2,1.2567801E-3,1.8200591E-1,-1.1695315E-3,1.3108791E-3,9.521593E-2,9.881942E-3,1.0170105E-2,3.5615396E-3,4.1061793E-3,6.0798475E-3],"categories":[],"categories_nodes":[],"categories_segments":[],"categories_sizes":[],"default_left":[0,0,0,0,0,0,0,0,0,0,0,0,0,0,0,0,0,0,0,0,0,0,0,0,0,0,0,0,0,0,0,0,0,0,0],"id":22,"left_children":[1,3,5,7,9,11,13,-1,15,17,-1,19,21,23,25,-1,-1,-1,-1,-1,27,-1,-1,-1,29,-1,31,-1,-1,33,-1,-1,-1,-1,-1],"loss_changes":[5.419495E0,1.1299858E0,8.9901066E-1,3.4287786E-1,2.2029893E-1,1.7592335E-1,1.4969087E-1,0E0,4.8837483E-2,5.5689063E-2,0E0,5.2790165E-2,4.969895E-2,9.167385E-2,5.98433E-2,0E0,0E0,0E0,0E0,0E0,5.5116773E-2,0E0,0E0,0E0,6.7133665E-2,0E0,5.0890923E-2,0E0,0E0,6.576371E-2,0E0,0E0,0E0,0E0,0E0],"parents":[2147483647,0,0,1,1,2,2,3,3,4,4,5,5,6,6,8,8,9,9,11,11,12,12,13,13,14,14,20,20,24,24,26,26,29,29],"right_children":[2,4,6,8,10,12,14,-1,16,18,-1,20,22,24,26,-1,-1,-1,-1,-1,28,-1,-1,-1,30,-1,32,-1,-1,34,-1,-1,-1,-1,-1],"split_conditions":[2.1518987E-1,1.02598265E-1,3.8307795E-1,4.197202E-2,1.6122586E-1,2.8247836E-1,6.182545E-1,-2.0991417E-3,7.061959E-2,1.3124584E-1,6.282102E-4,1.3592233E-1,4.783244E-1,1.2458361E-1,1.4797334E-1,-1.3454306E-3,-8.2913914E-4,-4.6727087E-4,5.1931616E-5,1.9639255E-3,1.7243059E-1,2.9449835E-3,1.0751416E-3,-1.6931801E-4,6.9410616E-1,1.2567801E-3,9.9142855E-1,-1.1695315E-3,1.3108791E-3,1.5048544E-1,9.881942E-3,1.0170105E-2,3.5615396E-3,4.1061793E-3,6.0798475E-3],"split_indices":[167,167,167,167,167,167,167,0,20,20,0,17,161,41,114,0,0,0,0,0,28,0,0,0,98,0,159,0,0,73,0,0,0,0,0],"split_type":[0,0,0,0,0,0,0,0,0,0,0,0,0,0,0,0,0,0,0,0,0,0,0,0,0,0,0,0,0,0,0,0,0,0,0],"sum_hessian":[8.226E3,6.604E3,1.622E3,3.339E3,3.265E3,1.359E3,2.63E2,9.87E2,2.352E3,2.229E3,1.036E3,8.24E2,5.35E2,2.3E2,3.3E1,6.56E2,1.696E3,1.362E3,8.67E2,4.8E2,3.44E2,4.94E2,4.1E1,9E0,2.21E2,3E0,3E1,2.4E1,3.2E2,2.14E2,7E0,2.5E1,5E0,1.39E2,7.5E1],"tree_param":{"num_deleted":"0","num_feature":"168","num_nodes":"35","size_leaf_vector":"1"}},{"base_weights":[8.00196E-5,-1.4429317E-2,4.1836068E-2,-3.057479E-2,-7.036758E-3,3.0553423E-2,8.410297E-2,-2.1772836E-3,-2.3710296E-2,-6.8383716E-4,1.8197278E-4,1.9137854E-2,2.0254855E-3,6.8451434E-2,1.2145477E-1,7.163795E-3,-1.2270478E-3,-2.5980617E-4,3.15877E-4,2.1956945E-3,8.3448953E-4,8.435997E-2,5.445721E-2,-2.6864004E-3,1.2736814E-1,1.2205151E-2,4.079481E-3,-1.0005734E-3,2.9478723E-3,5.903229E-3,1.1697107E-2],"categories":[],"categories_nodes":[],"categories_segments":[],"categories_sizes":[],"default_left":[0,0,0,0,0,0,0,0,0,0,0,0,0,0,0,0,0,0,0,0,0,0,0,0,0,0,0,0,0,0,0],"id":23,"left_children":[1,3,5,7,9,11,13,-1,15,-1,17,19,-1,21,23,-1,-1,-1,-1,-1,-1,25,27,-1,29,-1,-1,-1,-1,-1,-1],"loss_changes":[5.0019164E0,7.3108137E-1,1.0127132E0,1.628797E-1,1.9616115E-1,1.8038201E-1,2.5359297E-1,0E0,1.0885024E-1,0E0,6.3922904E-2,4.8480153E-2,0E0,6.620169E-2,1.4192402E-1,0E0,0E0,0E0,0E0,0E0,0E0,6.856942E-2,4.8894167E-2,0E0,1.15457535E-1,0E0,0E0,0E0,0E0,0E0,0E0],"parents":[2147483647,0,0,1,1,2,2,3,3,4,4,5,5,6,6,8,8,10,10,11,11,13,13,14,14,21,21,22,22,24,24],"right_children":[2,4,6,8,10,12,14,-1,16,-1,18,20,-1,22,24,-1,-1,-1,-1,-1,-1,26,28,-1,30,-1,-1,-1,-1,-1,-1],"split_conditions":[1.865423E-1,7.39507E-2,3.3044636E-1,1.1325783E-2,1.1925383E-1,2.3517655E-1,4.5103264E-1,-2.1772836E-3,7.038835E-2,-6.8383716E-4,1.3457695E-1,7.888349E-2,2.0254855E-3,2.8557165E-2,1.8655626E-1,7.163795E-3,-1.2270478E-3,-2.5980617E-4,3.15877E-4,2.1956945E-3,8.3448953E-4,2.8089888E-4,2.2851433E-1,-2.6864004E-3,6.0309537E-2,1.2205151E-2,4.079481E-3,-1.0005734E-3,2.9478723E-3,5.903229E-3,1.1697107E-2],"split_indices":[167,167,167,118,167,167,167,0,38,0,34,59,0,109,147,0,0,0,0,0,0,155,153,0,151,0,0,0,0,0,0],"split_type":[0,0,0,0,0,0,0,0,0,0,0,0,0,0,0,0,0,0,0,0,0,0,0,0,0,0,0,0,0,0,0],"sum_hessian":[8.254E3,6.126E3,2.128E3,1.923E3,4.203E3,1.681E3,4.47E2,6.83E2,1.24E3,2.217E3,1.986E3,7.62E2,9.19E2,3.17E2,1.3E2,3E0,1.237E3,1.058E3,9.28E2,7.4E1,6.88E2,1.46E2,1.71E2,4E0,1.26E2,2E0,1.44E2,8E0,1.63E2,1.16E2,1E1],"tree_param":{"num_deleted":"0","num_feature":"168","num_nodes":"31","size_leaf_vector":"1"}},{"base_weights":[6.11796E-5,-1.3840615E-2,3.8862634E-2,-2.6356047E-2,-5.0539295E-3,2.7927171E-2,8.010263E-2,-1.9658105E-3,-2.0046387E-2,-4.978397E-4,1.0267489E-4,2.0027831E-2,2.076E-3,7.351978E-2,1.6523367E-1,6.2476485E-3,-1.032223E-3,6.715476E-4,1.3770785E-3,1.1943477E-1,6.667546E-2,3.5718295E-3,9.819945E-3,7.47797E-3,3.7995046E-3,-8.178699E-4,6.971111E-2,3.1036541E-3,4.581711E-3],"categories":[],"categories_nodes":[],"categories_segments":[],"categories_sizes":[],"default_left":[0,0,0,0,0,0,0,0,0,0,0,0,0,0,0,0,0,0,0,0,0,0,0,0,0,0,0,0,0],"id":24,"left_children":[1,3,5,7,9,11,13,-1,15,-1,-1,17,-1,19,21,-1,-1,-1,-1,23,25,-1,-1,-1,-1,-1,27,-1,-1],"loss_changes":[4.4641542E0,6.69909E-1,9.822488E-1,1.9668722E-1,1.21088065E-1,1.7731547E-1,2.4395752E-1,0E0,8.202374E-2,0E0,0E0,5.188477E-2,0E0,1.2591004E-1,7.3118985E-2,0E0,0E0,0E0,0E0,5.6568384E-2,9.490478E-2,0E0,0E0,0E0,0E0,0E0,5.7465434E-2,0E0,0E0],"parents":[2147483647,0,0,1,1,2,2,3,3,4,4,5,5,6,6,8,8,11,11,13,13,14,14,19,19,20,20,26,26],"right_children":[2,4,6,8,10,12,14,-1,16,-1,-1,18,-1,20,22,-1,-1,-1,-1,24,26,-1,-1,-1,-1,-1,28,-1,-1],"split_conditions":[1.8321119E-1,8.594271E-2,3.3044636E-1,3.397735E-2,1.3124584E-1,2.54497E-1,6.182545E-1,-1.9658105E-3,6.553398E-2,-4.978397E-4,1.0267489E-4,1.9720186E-1,2.076E-3,1.1183226E-2,9.897537E-1,6.2476485E-3,-1.032223E-3,6.715476E-4,1.3770785E-3,3.4258744E-1,1.13257825E-1,3.5718295E-3,9.819945E-3,7.47797E-3,3.7995046E-3,-8.178699E-4,4.3371087E-1,3.1036541E-3,4.581711E-3],"split_indices":[167,167,167,160,167,167,167,0,45,0,0,13,0,67,33,0,0,0,0,135,55,0,0,0,0,0,167,0,0],"split_type":[0,0,0,0,0,0,0,0,0,0,0,0,0,0,0,0,0,0,0,0,0,0,0,0,0,0,0,0,0],"sum_hessian":[8.274E3,6.092E3,2.182E3,2.512E3,3.58E3,1.726E3,4.56E2,8.43E2,1.669E3,2.138E3,1.442E3,1.077E3,6.49E2,4.25E2,3.1E1,3E0,1.666E3,5.55E2,5.22E2,5.3E1,3.72E2,8E0,2.3E1,3.1E1,2.2E1,1.3E1,3.59E2,2.58E2,1.01E2],"tree_param":{"num_deleted":"0","num_feature":"168","num_nodes":"29","size_leaf_vector":"1"}},{"base_weights":[2.9212472E-4,-1.2920877E-2,3.523968E-2,-2.7271273E-2,-5.700866E-3,2.8321149E-2,7.147873E-2,-1.0156338E-3,-1.8880599E-3,-1.0918611E-2,5.98379E-4,8.4242463E-4,3.583968E-2,4.3448605E-2,9.619953E-2,-1.0014512E-3,-4.1380033E-4,1.0064207E-2,2.6752573E-4,4.628639E-2,2.7334446E-2,-5.7159684E-4,5.4244515E-2,2.66946E-3,1.1430925E-1,8.764171E-3,-1.5955023E-4,2.7069815E-2,5.4236524E-2,1.2451173E-2,1.7503682E-3,3.9904234E-3,1.9487432E-3,3.990137E-3,1.3452317E-1,7.5594336E-3,3.735748E-4,2.234868E-3,2.2916323E-4,1.1540482E-2,2.6667665E-3,3.0345963E-3,3.7566543E-4,6.1252187E-3,1.1298172E-2],"categories":[],"categories_nodes":[],"categories_segments":[],"categories_sizes":[],"default_left":[0,0,0,0,0,0,0,0,0,0,0,0,0,0,0,0,0,0,0,0,0,0,0,0,0,0,0,0,0,0,0,0,0,0,0,0,0,0,0,0,0,0,0,0,0],"id":25,"left_children":[1,3,5,7,9,11,13,-1,-1,15,17,-1,19,21,23,-1,-1,-1,25,27,29,-1,31,-1,33,35,-1,37,39,41,-1,-1,-1,-1,43,-1,-1,-1,-1,-1,-1,-1,-1,-1,-1],"loss_changes":[3.7970634E0,6.1808544E-1,5.636022E-1,1.4349091E-1,1.3052477E-1,1.6604316E-1,2.4596691E-1,0E0,0E0,5.269894E-2,1.1791772E-1,0E0,1.0118067E-1,1.01655155E-1,1.4443469E-1,0E0,0E0,0E0,5.2235268E-2,7.736349E-2,6.814456E-2,0E0,5.2306026E-2,0E0,8.565509E-2,9.95788E-2,0E0,5.861938E-2,8.838141E-2,4.9732927E-2,0E0,0E0,0E0,0E0,7.414317E-2,0E0,0E0,0E0,0E0,0E0,0E0,0E0,0E0,0E0,0E0],"parents":[2147483647,0,0,1,1,2,2,3,3,4,4,5,5,6,6,9,9,10,10,12,12,13,13,14,14,18,18,19,19,20,20,22,22,24,24,25,25,27,27,28,28,29,29,34,34],"right_children":[2,4,6,8,10,12,14,-1,-1,16,18,-1,20,22,24,-1,-1,-1,26,28,30,-1,32,-1,34,36,-1,38,40,42,-1,-1,-1,-1,44,-1,-1,-1,-1,-1,-1,-1,-1,-1,-1],"split_conditions":[1.7988008E-1,7.594936E-2,3.5176548E-1,1.8932039E-1,1.20586276E-1,2.2451699E-1,3.7652215E-1,-1.0156338E-3,-1.8880599E-3,7.4616924E-2,2.1319121E-2,8.4242463E-4,1.16504855E-1,2.4305893E-1,2.7696233E-2,-1.0014512E-3,-4.1380033E-4,1.0064207E-2,3.1552672E-2,1.8321119E-1,1.9720186E-1,-5.7159684E-4,8.009709E-2,2.66946E-3,9.9083745E-1,4.5303132E-2,-1.5955023E-4,4.5631554E-2,2.8089888E-4,1.5733074E-1,1.7503682E-3,3.9904234E-3,1.9487432E-3,3.990137E-3,5.9111334E-2,7.5594336E-3,3.735748E-4,2.234868E-3,2.2916323E-4,1.1540482E-2,2.6667665E-3,3.0345963E-3,3.7566543E-4,6.1252187E-3,1.1298172E-2],"split_indices":[160,160,160,101,90,160,112,0,0,6,153,0,10,105,4,0,0,0,144,90,6,0,3,0,26,41,0,11,155,63,0,0,0,0,144,0,0,0,0,0,0,0,0,0,0],"split_type":[0,0,0,0,0,0,0,0,0,0,0,0,0,0,0,0,0,0,0,0,0,0,0,0,0,0,0,0,0,0,0,0,0,0,0,0,0,0,0,0,0,0,0,0,0],"sum_hessian":[8.221E3,5.966E3,2.255E3,1.996E3,3.97E3,1.895E3,3.6E2,1.161E3,8.35E2,2.171E3,1.799E3,7.43E2,1.152E3,1.7E2,1.9E2,5.13E2,1.658E3,2E0,1.797E3,5.15E2,6.37E2,2.8E1,1.42E2,5.7E1,1.33E2,5.15E2,1.282E3,1.52E2,3.63E2,2.09E2,4.28E2,5.4E1,8.8E1,5E1,8.3E1,4E0,5.11E2,8.6E1,6.6E1,2E0,3.61E2,1.9E1,1.9E2,7.4E1,9E0],"tree_param":{"num_deleted":"0","num_feature":"168","num_nodes":"45","size_leaf_vector":"1"}},{"base_weights":[3.955051E-6,-1.2603219E-2,3.294082E-2,-2.6117593E-2,-5.79679E-3,2.2739127E-2,5.374969E-2,-1.0146096E-3,-1.8351589E-3,-1.0635533E-2,3.7301812E-4,9.1349315E-3,2.7020575E-2,3.6209896E-2,7.2501026E-2,7.4755824E-3,-1.0916204E-2,-5.080457E-4,1.6332688E-4,-3.72882E-4,9.045887E-4,2.0101964E-3,1.1145603E-3,3.0958038E-3,2.8616706E-2,1.09033E-1,5.8855355E-2,-9.6929655E-4,-4.113003E-4,1.0958037E-3,2.711455E-3,1.4445154E-3,1.1594988E-1,6.7017175E-2,1.2634601E-3,6.247756E-3,1.8493971E-3,2.911415E-3,5.689404E-3],"categories":[],"categories_nodes":[],"categories_segments":[],"categories_sizes":[],"default_left":[0,0,0,0,0,0,0,0,0,0,0,0,0,0,0,0,0,0,0,0,0,0,0,0,0,0,0,0,0,0,0,0,0,0,0,0,0,0,0],"id":26,"left_children":[1,3,5,7,9,11,13,-1,-1,15,17,19,21,23,25,-1,27,-1,-1,-1,-1,-1,-1,-1,29,31,33,-1,-1,-1,-1,-1,35,37,-1,-1,-1,-1,-1],"loss_changes":[3.418677E0,5.4752517E-1,4.8257685E-1,1.2201357E-1,1.1825612E-1,8.892733E-2,2.4371696E-1,0E0,0E0,1.0019645E-1,5.170594E-2,5.3090475E-2,7.308364E-2,7.1823955E-2,1.735425E-1,0E0,5.0801337E-2,0E0,0E0,0E0,0E0,0E0,0E0,0E0,5.103378E-2,5.0713778E-2,7.16756E-2,0E0,0E0,0E0,0E0,0E0,4.777968E-2,8.559632E-2,0E0,0E0,0E0,0E0,0E0],"parents":[2147483647,0,0,1,1,2,2,3,3,4,4,5,5,6,6,9,9,10,10,11,11,12,12,13,13,14,14,16,16,24,24,25,25,26,26,32,32,33,33],"right_children":[2,4,6,8,10,12,14,-1,-1,16,18,20,22,24,26,-1,28,-1,-1,-1,-1,-1,-1,-1,30,32,34,-1,-1,-1,-1,-1,36,38,-1,-1,-1,-1,-1],"split_conditions":[1.7854764E-1,7.594936E-2,2.8980678E-1,2.0024271E-1,9.8906404E-1,1.4057295E-1,3.555772E-1,-1.0146096E-3,-1.8351589E-3,6.553398E-2,1.005996E-1,9.892611E-1,3.5174903E-1,8.009709E-2,1.6275587E-2,7.4755824E-3,7.661559E-2,-5.080457E-4,1.6332688E-4,-3.72882E-4,9.045887E-4,2.0101964E-3,1.1145603E-3,3.0958038E-3,3.8918656E-1,9.889655E-1,9.9310344E-1,-9.6929655E-4,-4.113003E-4,1.0958037E-3,2.711455E-3,1.4445154E-3,5.0888395E-1,5.655139E-1,1.2634601E-3,6.247756E-3,1.8493971E-3,2.911415E-3,5.689404E-3],"split_indices":[160,160,160,94,117,13,112,0,0,45,160,26,163,10,60,0,6,0,0,0,0,0,0,0,14,131,5,0,0,0,0,0,163,161,0,0,0,0,0],"split_type":[0,0,0,0,0,0,0,0,0,0,0,0,0,0,0,0,0,0,0,0,0,0,0,0,0,0,0,0,0,0,0,0,0,0,0,0,0,0,0],"sum_hessian":[8.231E3,5.953E3,2.278E3,1.993E3,3.96E3,1.53E3,7.48E2,1.246E3,7.47E2,2.219E3,1.741E3,3.67E2,1.163E3,3.88E2,3.6E2,3E0,2.216E3,3.74E2,1.367E3,1.27E2,2.4E2,3.28E2,8.35E2,8.9E1,2.99E2,9.6E1,2.64E2,5.61E2,1.655E3,2.35E2,6.4E1,8E0,8.8E1,2.12E2,5.2E1,8E1,8E0,1.77E2,3.5E1],"tree_param":{"num_deleted":"0","num_feature":"168","num_nodes":"39","size_leaf_vector":"1"}},{"base_weights":[9.78306E-5,-1.1702659E-2,3.439033E-2,-2.3132866E-2,-4.1855606E-3,2.907525E-2,9.8886505E-2,-1.6921443E-3,-1.7106235E-2,-3.809593E-4,2.1168616E-4,2.0700451E-2,4.6000775E-2,1.1114189E-3,1.07283525E-1,6.5807817E-3,-8.85381E-4,1.351155E-4,1.1599447E-3,8.621923E-2,4.333655E-2,4.404034E-3,1.3594063E-1,1.09398E-2,3.7162954E-3,1.2389212E-3,2.4189502E-3,2.9934996E-3,1.5470165E-1,2.389879E-3,8.593241E-3],"categories":[],"categories_nodes":[],"categories_segments":[],"categories_sizes":[],"default_left":[0,0,0,0,0,0,0,0,0,0,0,0,0,0,0,0,0,0,0,0,0,0,0,0,0,0,0,0,0,0,0],"id":27,"left_children":[1,3,5,7,9,11,13,-1,15,-1,-1,17,19,-1,21,-1,-1,-1,-1,23,25,-1,27,-1,-1,-1,-1,-1,29,-1,-1],"loss_changes":[3.3304179E0,5.2600354E-1,7.1940947E-1,1.498251E-1,1.0312215E-1,2.751727E-1,1.0102284E-1,0E0,8.638689E-2,0E0,0E0,5.169964E-2,6.5268755E-2,0E0,7.2107315E-2,0E0,0E0,0E0,0E0,4.918769E-2,4.9384475E-2,0E0,7.447231E-2,0E0,0E0,0E0,0E0,0E0,6.592953E-2,0E0,0E0],"parents":[2147483647,0,0,1,1,2,2,3,3,4,4,5,5,6,6,8,8,11,11,12,12,14,14,19,19,20,20,22,22,28,28],"right_children":[2,4,6,8,10,12,14,-1,16,-1,-1,18,20,-1,22,-1,-1,-1,-1,24,26,-1,28,-1,-1,-1,-1,-1,30,-1,-1],"split_conditions":[1.865423E-1,8.461026E-2,4.3371087E-1,3.664224E-2,1.4390406E-1,2.8247836E-1,2.825134E-1,-1.6921443E-3,7.038835E-2,-3.809593E-4,2.1168616E-4,1.3257828E-1,1.1183226E-2,1.1114189E-3,5.216522E-1,6.5807817E-3,-8.85381E-4,1.351155E-4,1.1599447E-3,2.8089888E-4,2.24663E-2,4.404034E-3,2.6759861E-2,1.09398E-2,3.7162954E-3,1.2389212E-3,2.4189502E-3,2.9934996E-3,9.896552E-1,2.389879E-3,8.593241E-3],"split_indices":[167,167,167,167,167,167,98,0,59,0,0,146,67,0,167,0,0,0,0,155,25,0,4,0,0,0,0,0,117,0,0],"split_type":[0,0,0,0,0,0,0,0,0,0,0,0,0,0,0,0,0,0,0,0,0,0,0,0,0,0,0,0,0,0,0],"sum_hessian":[8.228E3,6.122E3,2.106E3,2.428E3,3.694E3,1.947E3,1.59E2,8.96E2,1.532E3,2.641E3,1.053E3,1.304E3,6.43E2,1.6E1,1.43E2,3E0,1.529E3,1.42E2,1.162E3,3.8E1,6.05E2,8.6E1,5.7E1,2E0,3.6E1,1.16E2,4.89E2,1.2E1,4.5E1,6E0,3.9E1],"tree_param":{"num_deleted":"0","num_feature":"168","num_nodes":"31","size_leaf_vector":"1"}},{"base_weights":[-2.0124277E-4,-1.0368755E-2,3.0876253E-2,-2.1441959E-2,-2.9501352E-3,7.9341464E-2,2.7498279E-2,-1.5047351E-3,-1.4162879E-2,-4.08295E-4,3.7652273E-3,6.811336E-2,9.418692E-3,1.4133689E-2,3.713702E-2,5.2077327E-2,-7.4741547E-4,-3.778974E-4,6.776429E-3,2.4042393E-3,4.6614795E-3,1.573003E-4,2.1807047E-2,1.5009539E-3,5.2395735E-2,1.2473419E-2,-5.765953E-4,8.255737E-4,1.4327835E-4,1.6235978E-3,5.896569E-4,4.0573645E-2,3.6383776E-3,1.6026227E-3,3.4165012E-3],"categories":[],"categories_nodes":[],"categories_segments":[],"categories_sizes":[],"default_left":[0,0,0,0,0,0,0,0,0,0,0,0,0,0,0,0,0,0,0,0,0,0,0,0,0,0,0,0,0,0,0,0,0,0,0],"id":28,"left_children":[1,3,5,7,9,11,13,-1,15,-1,17,19,-1,21,23,25,-1,-1,27,-1,-1,-1,29,-1,31,-1,-1,-1,-1,-1,-1,33,-1,-1,-1],"loss_changes":[2.607162E0,5.106502E-1,3.308128E-1,1.4962113E-1,1.2783468E-1,1.4533484E-1,2.4461555E-1,0E0,5.2915394E-2,0E0,5.4473527E-2,5.5381536E-2,0E0,6.754647E-2,1.249845E-1,1.5067378E-1,0E0,0E0,4.7695637E-2,0E0,0E0,0E0,4.8688248E-2,0E0,8.048552E-2,0E0,0E0,0E0,0E0,0E0,0E0,5.2612156E-2,0E0,0E0,0E0],"parents":[2147483647,0,0,1,1,2,2,3,3,4,4,5,5,6,6,8,8,10,10,11,11,13,13,14,14,15,15,18,18,22,22,24,24,31,31],"right_children":[2,4,6,8,10,12,14,-1,16,-1,18,20,-1,22,24,26,-1,-1,28,-1,-1,-1,30,-1,32,-1,-1,-1,-1,-1,-1,34,-1,-1,-1],"split_conditions":[1.9120586E-1,8.6608924E-2,6.31068E-2,6.395736E-2,1.272485E-1,4.5931105E-2,2.1518987E-1,-1.5047351E-3,7.773459E-3,-4.08295E-4,9.3937375E-2,3.2781297E-1,9.418692E-3,9.899507E-1,3.8869947E-1,5.4630246E-2,-7.4741547E-4,-3.778974E-4,3.7451416E-1,2.4042393E-3,4.6614795E-3,1.573003E-4,9.920197E-1,1.5009539E-3,3.3044636E-1,1.2473419E-2,-5.765953E-4,8.255737E-4,1.4327835E-4,1.6235978E-3,5.896569E-4,4.5786655E-1,3.6383776E-3,1.6026227E-3,3.4165012E-3],"split_indices":[153,83,164,13,13,123,13,0,23,0,153,28,0,40,161,27,0,0,163,0,0,0,145,0,20,0,0,0,0,0,0,133,0,0,0],"split_type":[0,0,0,0,0,0,0,0,0,0,0,0,0,0,0,0,0,0,0,0,0,0,0,0,0,0,0,0,0,0,0,0,0,0,0],"sum_hessian":[8.249E3,6.216E3,2.033E3,2.493E3,3.723E3,1.31E2,1.902E3,1.166E3,1.327E3,2.114E3,1.609E3,1.2E2,1.1E1,7.98E2,1.104E3,1.1E1,1.316E3,3.4E2,1.269E3,6.6E1,5.4E1,3.28E2,4.7E2,7.42E2,3.62E2,2E0,9E0,3.71E2,8.98E2,2.33E2,2.37E2,2.27E2,1.35E2,1.72E2,5.5E1],"tree_param":{"num_deleted":"0","num_feature":"168","num_nodes":"35","size_leaf_vector":"1"}},{"base_weights":[1.9126112E-4,-1.1566021E-2,2.8444625E-2,-1.4857954E-3,-7.841683E-3,2.039036E-2,6.326014E-2,-1.3511915E-2,-2.4623538E-3,7.007671E-4,3.1279888E-2,5.1340476E-2,9.3216926E-2,9.232279E-2,-6.9789734E-4,1.9249895E-4,-3.2067343E-4,1.7590929E-3,3.6894518E-4,6.4236015E-2,3.4913566E-2,-1.1085989E-3,1.0005667E-1,1.0910502E-2,-1.1682742E-3,1.0433989E-2,3.115982E-3,2.324413E-3,5.1776537E-6,9.1400474E-2,9.472079E-3,6.391726E-3,3.8764111E-3],"categories":[],"categories_nodes":[],"categories_segments":[],"categories_sizes":[],"default_left":[0,0,0,0,0,0,0,0,0,0,0,0,0,0,0,0,0,0,0,0,0,0,0,0,0,0,0,0,0,0,0,0,0],"id":29,"left_children":[1,3,5,-1,7,9,11,13,15,-1,17,19,21,23,-1,-1,-1,-1,-1,25,27,-1,29,-1,-1,-1,-1,-1,-1,31,-1,-1,-1],"loss_changes":[2.7345254E0,3.8441706E-1,6.770301E-1,0E0,1.4659005E-1,1.3991535E-1,1.573261E-1,6.718874E-2,5.9816647E-2,0E0,6.081873E-2,6.702691E-2,1.0296118E-1,9.017591E-2,0E0,0E0,0E0,0E0,0E0,5.7488084E-2,5.577846E-2,0E0,7.397282E-2,0E0,0E0,0E0,0E0,0E0,0E0,4.828328E-2,0E0,0E0,0E0],"parents":[2147483647,0,0,1,1,2,2,4,4,5,5,6,6,7,7,8,8,10,10,11,11,12,12,13,13,19,19,20,20,22,22,29,29],"right_children":[2,4,6,-1,8,10,12,14,16,-1,18,20,22,24,-1,-1,-1,-1,-1,26,28,-1,30,-1,-1,-1,-1,-1,-1,32,-1,-1,-1],"split_conditions":[1.7188542E-1,4.3970685E-2,3.3044636E-1,-1.4857954E-3,1.02598265E-1,2.4783477E-1,4.5103264E-1,7.038835E-2,4.611327E-1,7.007671E-4,4.1548952E-1,3.674488E-2,9.884729E-1,8.4269664E-4,-6.9789734E-4,1.9249895E-4,-3.2067343E-4,1.7590929E-3,3.6894518E-4,2.8089888E-4,9.912315E-1,-1.1085989E-3,6.0309537E-2,1.0910502E-2,-1.1682742E-3,1.0433989E-2,3.115982E-3,2.324413E-3,5.1776537E-6,9.8945814E-1,9.472079E-3,6.391726E-3,3.8764111E-3],"split_indices":[167,160,167,0,167,167,167,59,163,0,161,137,33,8,0,0,0,0,0,155,103,0,151,0,0,0,0,0,0,96,0,0,0],"split_type":[0,0,0,0,0,0,0,0,0,0,0,0,0,0,0,0,0,0,0,0,0,0,0,0,0,0,0,0,0,0,0,0,0],"sum_hessian":[8.23E3,5.812E3,2.418E3,1.006E3,4.806E3,1.965E3,4.53E2,2.339E3,2.467E3,1.228E3,7.37E2,3.26E2,1.27E2,5E0,2.334E3,9.42E2,1.525E3,6.44E2,9.3E1,1.81E2,1.45E2,7E0,1.2E2,2E0,3E0,2E0,1.79E2,1.1E2,3.5E1,1.11E2,9E0,3.1E1,8E1],"tree_param":{"num_deleted":"0","num_feature":"168","num_nodes":"33","size_leaf_vector":"1"}},{"base_weights":[-9.818501E-5,-1.0297596E-2,2.6633356E-2,-2.1394968E-2,-4.6805753E-3,1.8147096E-2,4.4293292E-2,-7.868278E-4,-1.4885527E-3,-4.9814436E-4,1.07578535E-5,2.256002E-2,4.570175E-4,6.630305E-2,3.269911E-2,7.39236E-4,1.4952649E-3,9.218731E-2,2.5589697E-3,1.9422967E-2,2.3471653E-3,2.6272766E-3,1.12810776E-1,7.1409467E-4,3.0776428E-3,7.1646064E-3,3.4303195E-3],"categories":[],"categories_nodes":[],"categories_segments":[],"categories_sizes":[],"default_left":[0,0,0,0,0,0,0,0,0,0,0,0,0,0,0,0,0,0,0,0,0,0,0,0,0,0,0],"id":30,"left_children":[1,3,5,7,9,11,13,-1,-1,-1,-1,15,-1,17,19,-1,-1,21,-1,23,-1,-1,25,-1,-1,-1,-1],"loss_changes":[2.249876E0,3.7222183E-1,3.407427E-1,9.356207E-2,1.0004171E-1,6.1846197E-2,1.8641376E-1,0E0,0E0,0E0,0E0,5.7117343E-2,0E0,9.911084E-2,8.710331E-2,0E0,0E0,7.314259E-2,0E0,5.3733855E-2,0E0,0E0,7.046932E-2,0E0,0E0,0E0,0E0],"parents":[2147483647,0,0,1,1,2,2,3,3,4,4,5,5,6,6,11,11,13,13,14,14,17,17,19,19,22,22],"right_children":[2,4,6,8,10,12,14,-1,-1,-1,-1,16,-1,18,20,-1,-1,22,-1,24,-1,-1,26,-1,-1,-1,-1],"split_conditions":[1.7854764E-1,7.594936E-2,2.8980678E-1,1.8932039E-1,9.885714E-1,1.4805825E-1,8.616505E-2,-7.868278E-4,-1.4885527E-3,-4.9814436E-4,1.07578535E-5,1.9320454E-1,4.570175E-4,8.4269664E-4,3.4729663E-1,7.39236E-4,1.4952649E-3,1.4563107E-1,2.5589697E-3,2.8089888E-3,2.3471653E-3,2.6272766E-3,2.8817323E-1,7.1409467E-4,3.0776428E-3,7.1646064E-3,3.4303195E-3],"split_indices":[160,160,160,101,110,17,3,0,0,0,0,97,0,127,105,0,0,59,0,71,0,0,114,0,0,0,0],"split_type":[0,0,0,0,0,0,0,0,0,0,0,0,0,0,0,0,0,0,0,0,0,0,0,0,0,0,0],"sum_hessian":[8.25E3,5.972E3,2.278E3,2.006E3,3.966E3,1.54E3,7.38E2,1.159E3,8.47E2,1.931E3,2.035E3,1.037E3,5.03E2,2.53E2,4.85E2,4.85E2,5.52E2,9.4E1,1.59E2,2.47E2,2.38E2,3.3E1,6.1E1,2.2E2,2.7E1,3.6E1,2.5E1],"tree_param":{"num_deleted":"0","num_feature":"168","num_nodes":"27","size_leaf_vector":"1"}},{"base_weights":[1.3274788E-5,-1.0419068E-2,2.5700992E-2,-2.3644647E-2,-6.2079034E-3,1.839389E-2,5.700407E-2,9.85959E-3,-1.2203425E-3,-5.0649344E-4,-9.920666E-6,6.117582E-4,1.360139E-3,5.1474024E-2,6.1262427E-3,3.854429E-2,3.5303968E-3,-3.2682174E-3,4.052266E-2,2.2908489E-3,-1.9718618E-4],"categories":[],"categories_nodes":[],"categories_segments":[],"categories_sizes":[],"default_left":[0,0,0,0,0,0,0,0,0,0,0,0,0,0,0,0,0,0,0,0,0],"id":31,"left_children":[1,3,5,7,9,11,13,-1,-1,-1,-1,-1,-1,15,-1,17,-1,-1,19,-1,-1],"loss_changes":[2.2036245E0,3.2555807E-1,5.421965E-1,1.4268214E-1,1.0113612E-1,1.0262805E-1,1.5254164E-1,0E0,0E0,0E0,0E0,0E0,0E0,9.510088E-2,0E0,5.257094E-2,0E0,0E0,5.0527334E-2,0E0,0E0],"parents":[2147483647,0,0,1,1,2,2,3,3,4,4,5,5,6,6,13,13,15,15,18,18],"right_children":[2,4,6,8,10,12,14,-1,-1,-1,-1,-1,-1,16,-1,18,-1,-1,20,-1,-1],"split_conditions":[1.7388408E-1,5.9293803E-2,3.3044636E-1,7.038835E-2,1.1925383E-1,2.398401E-1,6.182545E-1,9.85959E-3,-1.2203425E-3,-5.0649344E-4,-9.920666E-6,6.117582E-4,1.360139E-3,3.9600584E-1,6.1262427E-3,8.061293E-2,3.5303968E-3,-3.2682174E-3,9.938916E-1,2.2908489E-3,-1.9718618E-4],"split_indices":[167,167,167,52,167,167,167,0,0,0,0,0,0,21,0,69,0,0,166,0,0],"split_type":[0,0,0,0,0,0,0,0,0,0,0,0,0,0,0,0,0,0,0,0,0],"sum_hessian":[8.221E3,5.847E3,2.374E3,1.411E3,4.436E3,1.926E3,4.48E2,2E0,1.409E3,2.72E3,1.716E3,1.104E3,8.22E2,4.14E2,3.4E1,2.44E2,1.7E2,4E0,2.4E2,2.17E2,2.3E1],"tree_param":{"num_deleted":"0","num_feature":"168","num_nodes":"21","size_leaf_vector":"1"}},{"base_weights":[5.3748783E-5,-9.902237E-3,2.505356E-2,-2.3341792E-2,-6.175431E-3,1.9800086E-2,6.7146406E-2,9.526647E-3,-1.2064632E-3,-5.9221836E-4,-2.4877277E-3,1.2868966E-2,1.5208932E-3,6.021615E-2,5.6551234E-3,1.4887334E-4,-2.8707148E-4,1.3496181E-3,5.016455E-4,-6.8833615E-4,6.33113E-2,3.8570592E-3,2.232125E-3],"categories":[],"categories_nodes":[],"categories_segments":[],"categories_sizes":[],"default_left":[0,0,0,0,0,0,0,0,0,0,0,0,0,0,0,0,0,0,0,0,0,0,0],"id":32,